digraph Tree {
node [shape=box, style="filled, rounded", color="black", fontname=helvetica] ;
edge [fontname=helvetica] ;
0 [label=<y &le; 1.523<br/>gini = 0.202<br/>samples = 3295<br/>value = [2920, 375]<br/>class = no>, fillcolor="#e89152"] ;
1 [label=<poutcome &le; 1.388<br/>gini = 0.169<br/>samples = 3175<br/>value = [2879, 296]<br/>class = no>, fillcolor="#e88e4d"] ;
0 -> 1 [labeldistance=2.5, labelangle=45, headlabel="True"] ;
2 [label=<month &le; 0.315<br/>gini = 0.158<br/>samples = 3093<br/>value = [2826, 267]<br/>class = no>, fillcolor="#e78d4c"] ;
1 -> 2 ;
3 [label=<housing &le; 0.767<br/>gini = 0.196<br/>samples = 1971<br/>value = [1754, 217]<br/>class = no>, fillcolor="#e89151"] ;
2 -> 3 ;
4 [label=<poutcome &le; 0.525<br/>gini = 0.21<br/>samples = 1649<br/>value = [1452, 197]<br/>class = no>, fillcolor="#e99254"] ;
3 -> 4 ;
5 [label=<poutcome &le; -0.338<br/>gini = 0.241<br/>samples = 986<br/>value = [848, 138]<br/>class = no>, fillcolor="#e99659"] ;
4 -> 5 ;
6 [label=<y &le; -1.122<br/>gini = 0.195<br/>samples = 904<br/>value = [805, 99]<br/>class = no>, fillcolor="#e89051"] ;
5 -> 6 ;
7 [label=<poutcome &le; -1.632<br/>gini = 0.346<br/>samples = 81<br/>value = [63, 18]<br/>class = no>, fillcolor="#eca572"] ;
6 -> 7 ;
8 [label=<default &le; -1.521<br/>gini = 0.133<br/>samples = 42<br/>value = [39, 3]<br/>class = no>, fillcolor="#e78b48"] ;
7 -> 8 ;
9 [label=<marital &le; -0.22<br/>gini = 0.444<br/>samples = 3<br/>value = [2, 1]<br/>class = no>, fillcolor="#f2c09c"] ;
8 -> 9 ;
10 [label=<gini = 0.0<br/>samples = 2<br/>value = [2, 0]<br/>class = no>, fillcolor="#e58139"] ;
9 -> 10 ;
11 [label=<gini = 0.0<br/>samples = 1<br/>value = [0, 1]<br/>class = yes>, fillcolor="#399de5"] ;
9 -> 11 ;
12 [label=<contact &le; 0.215<br/>gini = 0.097<br/>samples = 39<br/>value = [37, 2]<br/>class = no>, fillcolor="#e68844"] ;
8 -> 12 ;
13 [label=<gini = 0.0<br/>samples = 29<br/>value = [29, 0]<br/>class = no>, fillcolor="#e58139"] ;
12 -> 13 ;
14 [label=<loan &le; 0.408<br/>gini = 0.32<br/>samples = 10<br/>value = [8, 2]<br/>class = no>, fillcolor="#eca06a"] ;
12 -> 14 ;
15 [label=<marital &le; 1.168<br/>gini = 0.444<br/>samples = 6<br/>value = [4, 2]<br/>class = no>, fillcolor="#f2c09c"] ;
14 -> 15 ;
16 [label=<marital &le; -0.776<br/>gini = 0.32<br/>samples = 5<br/>value = [4, 1]<br/>class = no>, fillcolor="#eca06a"] ;
15 -> 16 ;
17 [label=<contact &le; 1.573<br/>gini = 0.5<br/>samples = 2<br/>value = [1, 1]<br/>class = no>, fillcolor="#ffffff"] ;
16 -> 17 ;
18 [label=<gini = 0.0<br/>samples = 1<br/>value = [1, 0]<br/>class = no>, fillcolor="#e58139"] ;
17 -> 18 ;
19 [label=<gini = 0.0<br/>samples = 1<br/>value = [0, 1]<br/>class = yes>, fillcolor="#399de5"] ;
17 -> 19 ;
20 [label=<gini = 0.0<br/>samples = 3<br/>value = [3, 0]<br/>class = no>, fillcolor="#e58139"] ;
16 -> 20 ;
21 [label=<gini = 0.0<br/>samples = 1<br/>value = [0, 1]<br/>class = yes>, fillcolor="#399de5"] ;
15 -> 21 ;
22 [label=<gini = 0.0<br/>samples = 4<br/>value = [4, 0]<br/>class = no>, fillcolor="#e58139"] ;
14 -> 22 ;
23 [label=<marital &le; 1.585<br/>gini = 0.473<br/>samples = 39<br/>value = [24, 15]<br/>class = no>, fillcolor="#f5d0b5"] ;
7 -> 23 ;
24 [label=<education &le; -1.114<br/>gini = 0.456<br/>samples = 37<br/>value = [24, 13]<br/>class = no>, fillcolor="#f3c5a4"] ;
23 -> 24 ;
25 [label=<gini = 0.0<br/>samples = 3<br/>value = [3, 0]<br/>class = no>, fillcolor="#e58139"] ;
24 -> 25 ;
26 [label=<marital &le; 0.474<br/>gini = 0.472<br/>samples = 34<br/>value = [21, 13]<br/>class = no>, fillcolor="#f5cfb4"] ;
24 -> 26 ;
27 [label=<education &le; 0.533<br/>gini = 0.498<br/>samples = 15<br/>value = [7, 8]<br/>class = yes>, fillcolor="#e6f3fc"] ;
26 -> 27 ;
28 [label=<contact &le; 0.894<br/>gini = 0.42<br/>samples = 10<br/>value = [3, 7]<br/>class = yes>, fillcolor="#8ec7f0"] ;
27 -> 28 ;
29 [label=<poutcome &le; -0.769<br/>gini = 0.49<br/>samples = 7<br/>value = [3, 4]<br/>class = yes>, fillcolor="#cee6f8"] ;
28 -> 29 ;
30 [label=<loan &le; -0.101<br/>gini = 0.48<br/>samples = 5<br/>value = [3, 2]<br/>class = no>, fillcolor="#f6d5bd"] ;
29 -> 30 ;
31 [label=<poutcome &le; -1.201<br/>gini = 0.444<br/>samples = 3<br/>value = [1, 2]<br/>class = yes>, fillcolor="#9ccef2"] ;
30 -> 31 ;
32 [label=<gini = 0.0<br/>samples = 2<br/>value = [0, 2]<br/>class = yes>, fillcolor="#399de5"] ;
31 -> 32 ;
33 [label=<gini = 0.0<br/>samples = 1<br/>value = [1, 0]<br/>class = no>, fillcolor="#e58139"] ;
31 -> 33 ;
34 [label=<gini = 0.0<br/>samples = 2<br/>value = [2, 0]<br/>class = no>, fillcolor="#e58139"] ;
30 -> 34 ;
35 [label=<gini = 0.0<br/>samples = 2<br/>value = [0, 2]<br/>class = yes>, fillcolor="#399de5"] ;
29 -> 35 ;
36 [label=<gini = 0.0<br/>samples = 3<br/>value = [0, 3]<br/>class = yes>, fillcolor="#399de5"] ;
28 -> 36 ;
37 [label=<marital &le; -0.915<br/>gini = 0.32<br/>samples = 5<br/>value = [4, 1]<br/>class = no>, fillcolor="#eca06a"] ;
27 -> 37 ;
38 [label=<gini = 0.0<br/>samples = 4<br/>value = [4, 0]<br/>class = no>, fillcolor="#e58139"] ;
37 -> 38 ;
39 [label=<gini = 0.0<br/>samples = 1<br/>value = [0, 1]<br/>class = yes>, fillcolor="#399de5"] ;
37 -> 39 ;
40 [label=<poutcome &le; -0.769<br/>gini = 0.388<br/>samples = 19<br/>value = [14, 5]<br/>class = no>, fillcolor="#eeae80"] ;
26 -> 40 ;
41 [label=<poutcome &le; -1.201<br/>gini = 0.496<br/>samples = 11<br/>value = [6, 5]<br/>class = no>, fillcolor="#fbeade"] ;
40 -> 41 ;
42 [label=<marital &le; 0.89<br/>gini = 0.48<br/>samples = 10<br/>value = [6, 4]<br/>class = no>, fillcolor="#f6d5bd"] ;
41 -> 42 ;
43 [label=<gini = 0.0<br/>samples = 1<br/>value = [1, 0]<br/>class = no>, fillcolor="#e58139"] ;
42 -> 43 ;
44 [label=<education &le; 0.533<br/>gini = 0.494<br/>samples = 9<br/>value = [5, 4]<br/>class = no>, fillcolor="#fae6d7"] ;
42 -> 44 ;
45 [label=<gini = 0.0<br/>samples = 1<br/>value = [1, 0]<br/>class = no>, fillcolor="#e58139"] ;
44 -> 45 ;
46 [label=<loan &le; -0.101<br/>gini = 0.5<br/>samples = 8<br/>value = [4, 4]<br/>class = no>, fillcolor="#ffffff"] ;
44 -> 46 ;
47 [label=<gini = 0.444<br/>samples = 3<br/>value = [2, 1]<br/>class = no>, fillcolor="#f2c09c"] ;
46 -> 47 ;
48 [label=<default &le; 1.273<br/>gini = 0.48<br/>samples = 5<br/>value = [2, 3]<br/>class = yes>, fillcolor="#bddef6"] ;
46 -> 48 ;
49 [label=<gini = 0.0<br/>samples = 2<br/>value = [0, 2]<br/>class = yes>, fillcolor="#399de5"] ;
48 -> 49 ;
50 [label=<marital &le; 1.307<br/>gini = 0.444<br/>samples = 3<br/>value = [2, 1]<br/>class = no>, fillcolor="#f2c09c"] ;
48 -> 50 ;
51 [label=<gini = 0.5<br/>samples = 2<br/>value = [1, 1]<br/>class = no>, fillcolor="#ffffff"] ;
50 -> 51 ;
52 [label=<gini = 0.0<br/>samples = 1<br/>value = [1, 0]<br/>class = no>, fillcolor="#e58139"] ;
50 -> 52 ;
53 [label=<gini = 0.0<br/>samples = 1<br/>value = [0, 1]<br/>class = yes>, fillcolor="#399de5"] ;
41 -> 53 ;
54 [label=<gini = 0.0<br/>samples = 8<br/>value = [8, 0]<br/>class = no>, fillcolor="#e58139"] ;
40 -> 54 ;
55 [label=<gini = 0.0<br/>samples = 2<br/>value = [0, 2]<br/>class = yes>, fillcolor="#399de5"] ;
23 -> 55 ;
56 [label=<poutcome &le; -1.632<br/>gini = 0.177<br/>samples = 823<br/>value = [742, 81]<br/>class = no>, fillcolor="#e88f4f"] ;
6 -> 56 ;
57 [label=<marital &le; -0.915<br/>gini = 0.333<br/>samples = 90<br/>value = [71, 19]<br/>class = no>, fillcolor="#eca36e"] ;
56 -> 57 ;
58 [label=<education &le; 0.533<br/>gini = 0.459<br/>samples = 28<br/>value = [18, 10]<br/>class = no>, fillcolor="#f3c7a7"] ;
57 -> 58 ;
59 [label=<default &le; 0.109<br/>gini = 0.497<br/>samples = 13<br/>value = [6, 7]<br/>class = yes>, fillcolor="#e3f1fb"] ;
58 -> 59 ;
60 [label=<loan &le; -0.101<br/>gini = 0.444<br/>samples = 3<br/>value = [2, 1]<br/>class = no>, fillcolor="#f2c09c"] ;
59 -> 60 ;
61 [label=<gini = 0.0<br/>samples = 2<br/>value = [2, 0]<br/>class = no>, fillcolor="#e58139"] ;
60 -> 61 ;
62 [label=<gini = 0.0<br/>samples = 1<br/>value = [0, 1]<br/>class = yes>, fillcolor="#399de5"] ;
60 -> 62 ;
63 [label=<default &le; 0.807<br/>gini = 0.48<br/>samples = 10<br/>value = [4, 6]<br/>class = yes>, fillcolor="#bddef6"] ;
59 -> 63 ;
64 [label=<gini = 0.0<br/>samples = 1<br/>value = [0, 1]<br/>class = yes>, fillcolor="#399de5"] ;
63 -> 64 ;
65 [label=<education &le; -1.114<br/>gini = 0.494<br/>samples = 9<br/>value = [4, 5]<br/>class = yes>, fillcolor="#d7ebfa"] ;
63 -> 65 ;
66 [label=<gini = 0.0<br/>samples = 1<br/>value = [0, 1]<br/>class = yes>, fillcolor="#399de5"] ;
65 -> 66 ;
67 [label=<loan &le; -0.101<br/>gini = 0.5<br/>samples = 8<br/>value = [4, 4]<br/>class = no>, fillcolor="#ffffff"] ;
65 -> 67 ;
68 [label=<gini = 0.5<br/>samples = 2<br/>value = [1, 1]<br/>class = no>, fillcolor="#ffffff"] ;
67 -> 68 ;
69 [label=<contact &le; 0.894<br/>gini = 0.5<br/>samples = 6<br/>value = [3, 3]<br/>class = no>, fillcolor="#ffffff"] ;
67 -> 69 ;
70 [label=<gini = 0.5<br/>samples = 2<br/>value = [1, 1]<br/>class = no>, fillcolor="#ffffff"] ;
69 -> 70 ;
71 [label=<gini = 0.5<br/>samples = 4<br/>value = [2, 2]<br/>class = no>, fillcolor="#ffffff"] ;
69 -> 71 ;
72 [label=<contact &le; 0.894<br/>gini = 0.32<br/>samples = 15<br/>value = [12, 3]<br/>class = no>, fillcolor="#eca06a"] ;
58 -> 72 ;
73 [label=<default &le; 0.342<br/>gini = 0.355<br/>samples = 13<br/>value = [10, 3]<br/>class = no>, fillcolor="#eda774"] ;
72 -> 73 ;
74 [label=<loan &le; -0.101<br/>gini = 0.278<br/>samples = 6<br/>value = [5, 1]<br/>class = no>, fillcolor="#ea9a61"] ;
73 -> 74 ;
75 [label=<gini = 0.375<br/>samples = 4<br/>value = [3, 1]<br/>class = no>, fillcolor="#eeab7b"] ;
74 -> 75 ;
76 [label=<gini = 0.0<br/>samples = 2<br/>value = [2, 0]<br/>class = no>, fillcolor="#e58139"] ;
74 -> 76 ;
77 [label=<loan &le; -0.101<br/>gini = 0.408<br/>samples = 7<br/>value = [5, 2]<br/>class = no>, fillcolor="#efb388"] ;
73 -> 77 ;
78 [label=<gini = 0.0<br/>samples = 2<br/>value = [2, 0]<br/>class = no>, fillcolor="#e58139"] ;
77 -> 78 ;
79 [label=<gini = 0.48<br/>samples = 5<br/>value = [3, 2]<br/>class = no>, fillcolor="#f6d5bd"] ;
77 -> 79 ;
80 [label=<gini = 0.0<br/>samples = 2<br/>value = [2, 0]<br/>class = no>, fillcolor="#e58139"] ;
72 -> 80 ;
81 [label=<marital &le; 1.307<br/>gini = 0.248<br/>samples = 62<br/>value = [53, 9]<br/>class = no>, fillcolor="#e9965b"] ;
57 -> 81 ;
82 [label=<default &le; -1.056<br/>gini = 0.177<br/>samples = 51<br/>value = [46, 5]<br/>class = no>, fillcolor="#e88f4f"] ;
81 -> 82 ;
83 [label=<loan &le; -0.101<br/>gini = 0.397<br/>samples = 11<br/>value = [8, 3]<br/>class = no>, fillcolor="#efb083"] ;
82 -> 83 ;
84 [label=<gini = 0.0<br/>samples = 5<br/>value = [5, 0]<br/>class = no>, fillcolor="#e58139"] ;
83 -> 84 ;
85 [label=<marital &le; -0.637<br/>gini = 0.5<br/>samples = 6<br/>value = [3, 3]<br/>class = no>, fillcolor="#ffffff"] ;
83 -> 85 ;
86 [label=<default &le; -1.521<br/>gini = 0.375<br/>samples = 4<br/>value = [3, 1]<br/>class = no>, fillcolor="#eeab7b"] ;
85 -> 86 ;
87 [label=<gini = 0.0<br/>samples = 2<br/>value = [2, 0]<br/>class = no>, fillcolor="#e58139"] ;
86 -> 87 ;
88 [label=<contact &le; 0.894<br/>gini = 0.5<br/>samples = 2<br/>value = [1, 1]<br/>class = no>, fillcolor="#ffffff"] ;
86 -> 88 ;
89 [label=<gini = 0.0<br/>samples = 1<br/>value = [0, 1]<br/>class = yes>, fillcolor="#399de5"] ;
88 -> 89 ;
90 [label=<gini = 0.0<br/>samples = 1<br/>value = [1, 0]<br/>class = no>, fillcolor="#e58139"] ;
88 -> 90 ;
91 [label=<gini = 0.0<br/>samples = 2<br/>value = [0, 2]<br/>class = yes>, fillcolor="#399de5"] ;
85 -> 91 ;
92 [label=<education &le; -1.114<br/>gini = 0.095<br/>samples = 40<br/>value = [38, 2]<br/>class = no>, fillcolor="#e68843"] ;
82 -> 92 ;
93 [label=<marital &le; 0.057<br/>gini = 0.375<br/>samples = 4<br/>value = [3, 1]<br/>class = no>, fillcolor="#eeab7b"] ;
92 -> 93 ;
94 [label=<gini = 0.0<br/>samples = 2<br/>value = [2, 0]<br/>class = no>, fillcolor="#e58139"] ;
93 -> 94 ;
95 [label=<gini = 0.5<br/>samples = 2<br/>value = [1, 1]<br/>class = no>, fillcolor="#ffffff"] ;
93 -> 95 ;
96 [label=<contact &le; 0.894<br/>gini = 0.054<br/>samples = 36<br/>value = [35, 1]<br/>class = no>, fillcolor="#e6853f"] ;
92 -> 96 ;
97 [label=<gini = 0.0<br/>samples = 29<br/>value = [29, 0]<br/>class = no>, fillcolor="#e58139"] ;
96 -> 97 ;
98 [label=<education &le; 0.533<br/>gini = 0.245<br/>samples = 7<br/>value = [6, 1]<br/>class = no>, fillcolor="#e9965a"] ;
96 -> 98 ;
99 [label=<gini = 0.0<br/>samples = 4<br/>value = [4, 0]<br/>class = no>, fillcolor="#e58139"] ;
98 -> 99 ;
100 [label=<marital &le; 0.474<br/>gini = 0.444<br/>samples = 3<br/>value = [2, 1]<br/>class = no>, fillcolor="#f2c09c"] ;
98 -> 100 ;
101 [label=<gini = 0.0<br/>samples = 1<br/>value = [0, 1]<br/>class = yes>, fillcolor="#399de5"] ;
100 -> 101 ;
102 [label=<gini = 0.0<br/>samples = 2<br/>value = [2, 0]<br/>class = no>, fillcolor="#e58139"] ;
100 -> 102 ;
103 [label=<education &le; 0.533<br/>gini = 0.463<br/>samples = 11<br/>value = [7, 4]<br/>class = no>, fillcolor="#f4c9aa"] ;
81 -> 103 ;
104 [label=<default &le; -0.59<br/>gini = 0.5<br/>samples = 8<br/>value = [4, 4]<br/>class = no>, fillcolor="#ffffff"] ;
103 -> 104 ;
105 [label=<gini = 0.0<br/>samples = 2<br/>value = [2, 0]<br/>class = no>, fillcolor="#e58139"] ;
104 -> 105 ;
106 [label=<default &le; 0.109<br/>gini = 0.444<br/>samples = 6<br/>value = [2, 4]<br/>class = yes>, fillcolor="#9ccef2"] ;
104 -> 106 ;
107 [label=<gini = 0.0<br/>samples = 1<br/>value = [0, 1]<br/>class = yes>, fillcolor="#399de5"] ;
106 -> 107 ;
108 [label=<loan &le; -0.101<br/>gini = 0.48<br/>samples = 5<br/>value = [2, 3]<br/>class = yes>, fillcolor="#bddef6"] ;
106 -> 108 ;
109 [label=<default &le; 1.04<br/>gini = 0.375<br/>samples = 4<br/>value = [1, 3]<br/>class = yes>, fillcolor="#7bbeee"] ;
108 -> 109 ;
110 [label=<gini = 0.444<br/>samples = 3<br/>value = [1, 2]<br/>class = yes>, fillcolor="#9ccef2"] ;
109 -> 110 ;
111 [label=<gini = 0.0<br/>samples = 1<br/>value = [0, 1]<br/>class = yes>, fillcolor="#399de5"] ;
109 -> 111 ;
112 [label=<gini = 0.0<br/>samples = 1<br/>value = [1, 0]<br/>class = no>, fillcolor="#e58139"] ;
108 -> 112 ;
113 [label=<gini = 0.0<br/>samples = 3<br/>value = [3, 0]<br/>class = no>, fillcolor="#e58139"] ;
103 -> 113 ;
114 [label=<default &le; 1.273<br/>gini = 0.155<br/>samples = 733<br/>value = [671, 62]<br/>class = no>, fillcolor="#e78d4b"] ;
56 -> 114 ;
115 [label=<education &le; 2.18<br/>gini = 0.15<br/>samples = 710<br/>value = [652, 58]<br/>class = no>, fillcolor="#e78c4b"] ;
114 -> 115 ;
116 [label=<education &le; -1.114<br/>gini = 0.148<br/>samples = 707<br/>value = [650, 57]<br/>class = no>, fillcolor="#e78c4a"] ;
115 -> 116 ;
117 [label=<marital &le; -0.915<br/>gini = 0.119<br/>samples = 79<br/>value = [74, 5]<br/>class = no>, fillcolor="#e78a46"] ;
116 -> 117 ;
118 [label=<loan &le; -0.101<br/>gini = 0.278<br/>samples = 18<br/>value = [15, 3]<br/>class = no>, fillcolor="#ea9a61"] ;
117 -> 118 ;
119 [label=<default &le; -0.59<br/>gini = 0.444<br/>samples = 9<br/>value = [6, 3]<br/>class = no>, fillcolor="#f2c09c"] ;
118 -> 119 ;
120 [label=<gini = 0.0<br/>samples = 1<br/>value = [0, 1]<br/>class = yes>, fillcolor="#399de5"] ;
119 -> 120 ;
121 [label=<default &le; 0.342<br/>gini = 0.375<br/>samples = 8<br/>value = [6, 2]<br/>class = no>, fillcolor="#eeab7b"] ;
119 -> 121 ;
122 [label=<gini = 0.0<br/>samples = 5<br/>value = [5, 0]<br/>class = no>, fillcolor="#e58139"] ;
121 -> 122 ;
123 [label=<poutcome &le; -0.985<br/>gini = 0.444<br/>samples = 3<br/>value = [1, 2]<br/>class = yes>, fillcolor="#9ccef2"] ;
121 -> 123 ;
124 [label=<gini = 0.0<br/>samples = 1<br/>value = [0, 1]<br/>class = yes>, fillcolor="#399de5"] ;
123 -> 124 ;
125 [label=<contact &le; 0.894<br/>gini = 0.5<br/>samples = 2<br/>value = [1, 1]<br/>class = no>, fillcolor="#ffffff"] ;
123 -> 125 ;
126 [label=<gini = 0.0<br/>samples = 1<br/>value = [1, 0]<br/>class = no>, fillcolor="#e58139"] ;
125 -> 126 ;
127 [label=<gini = 0.0<br/>samples = 1<br/>value = [0, 1]<br/>class = yes>, fillcolor="#399de5"] ;
125 -> 127 ;
128 [label=<gini = 0.0<br/>samples = 9<br/>value = [9, 0]<br/>class = no>, fillcolor="#e58139"] ;
118 -> 128 ;
129 [label=<default &le; -0.59<br/>gini = 0.063<br/>samples = 61<br/>value = [59, 2]<br/>class = no>, fillcolor="#e68540"] ;
117 -> 129 ;
130 [label=<gini = 0.0<br/>samples = 15<br/>value = [15, 0]<br/>class = no>, fillcolor="#e58139"] ;
129 -> 130 ;
131 [label=<marital &le; 0.196<br/>gini = 0.083<br/>samples = 46<br/>value = [44, 2]<br/>class = no>, fillcolor="#e68742"] ;
129 -> 131 ;
132 [label=<default &le; 0.109<br/>gini = 0.219<br/>samples = 8<br/>value = [7, 1]<br/>class = no>, fillcolor="#e99355"] ;
131 -> 132 ;
133 [label=<gini = 0.0<br/>samples = 1<br/>value = [0, 1]<br/>class = yes>, fillcolor="#399de5"] ;
132 -> 133 ;
134 [label=<gini = 0.0<br/>samples = 7<br/>value = [7, 0]<br/>class = no>, fillcolor="#e58139"] ;
132 -> 134 ;
135 [label=<poutcome &le; -0.985<br/>gini = 0.051<br/>samples = 38<br/>value = [37, 1]<br/>class = no>, fillcolor="#e6843e"] ;
131 -> 135 ;
136 [label=<gini = 0.0<br/>samples = 20<br/>value = [20, 0]<br/>class = no>, fillcolor="#e58139"] ;
135 -> 136 ;
137 [label=<marital &le; 1.168<br/>gini = 0.105<br/>samples = 18<br/>value = [17, 1]<br/>class = no>, fillcolor="#e78845"] ;
135 -> 137 ;
138 [label=<gini = 0.0<br/>samples = 7<br/>value = [7, 0]<br/>class = no>, fillcolor="#e58139"] ;
137 -> 138 ;
139 [label=<default &le; 0.807<br/>gini = 0.165<br/>samples = 11<br/>value = [10, 1]<br/>class = no>, fillcolor="#e88e4d"] ;
137 -> 139 ;
140 [label=<default &le; 0.109<br/>gini = 0.219<br/>samples = 8<br/>value = [7, 1]<br/>class = no>, fillcolor="#e99355"] ;
139 -> 140 ;
141 [label=<gini = 0.0<br/>samples = 2<br/>value = [2, 0]<br/>class = no>, fillcolor="#e58139"] ;
140 -> 141 ;
142 [label=<contact &le; 0.894<br/>gini = 0.278<br/>samples = 6<br/>value = [5, 1]<br/>class = no>, fillcolor="#ea9a61"] ;
140 -> 142 ;
143 [label=<loan &le; -0.101<br/>gini = 0.32<br/>samples = 5<br/>value = [4, 1]<br/>class = no>, fillcolor="#eca06a"] ;
142 -> 143 ;
144 [label=<gini = 0.0<br/>samples = 1<br/>value = [1, 0]<br/>class = no>, fillcolor="#e58139"] ;
143 -> 144 ;
145 [label=<gini = 0.375<br/>samples = 4<br/>value = [3, 1]<br/>class = no>, fillcolor="#eeab7b"] ;
143 -> 145 ;
146 [label=<gini = 0.0<br/>samples = 1<br/>value = [1, 0]<br/>class = no>, fillcolor="#e58139"] ;
142 -> 146 ;
147 [label=<gini = 0.0<br/>samples = 3<br/>value = [3, 0]<br/>class = no>, fillcolor="#e58139"] ;
139 -> 147 ;
148 [label=<loan &le; 0.408<br/>gini = 0.152<br/>samples = 628<br/>value = [576, 52]<br/>class = no>, fillcolor="#e78c4b"] ;
116 -> 148 ;
149 [label=<default &le; -1.521<br/>gini = 0.132<br/>samples = 295<br/>value = [274, 21]<br/>class = no>, fillcolor="#e78b48"] ;
148 -> 149 ;
150 [label=<poutcome &le; -0.985<br/>gini = 0.227<br/>samples = 23<br/>value = [20, 3]<br/>class = no>, fillcolor="#e99457"] ;
149 -> 150 ;
151 [label=<gini = 0.0<br/>samples = 10<br/>value = [10, 0]<br/>class = no>, fillcolor="#e58139"] ;
150 -> 151 ;
152 [label=<contact &le; 1.573<br/>gini = 0.355<br/>samples = 13<br/>value = [10, 3]<br/>class = no>, fillcolor="#eda774"] ;
150 -> 152 ;
153 [label=<marital &le; 0.196<br/>gini = 0.298<br/>samples = 11<br/>value = [9, 2]<br/>class = no>, fillcolor="#eb9d65"] ;
152 -> 153 ;
154 [label=<marital &le; -0.637<br/>gini = 0.219<br/>samples = 8<br/>value = [7, 1]<br/>class = no>, fillcolor="#e99355"] ;
153 -> 154 ;
155 [label=<contact &le; 0.215<br/>gini = 0.32<br/>samples = 5<br/>value = [4, 1]<br/>class = no>, fillcolor="#eca06a"] ;
154 -> 155 ;
156 [label=<gini = 0.375<br/>samples = 4<br/>value = [3, 1]<br/>class = no>, fillcolor="#eeab7b"] ;
155 -> 156 ;
157 [label=<gini = 0.0<br/>samples = 1<br/>value = [1, 0]<br/>class = no>, fillcolor="#e58139"] ;
155 -> 157 ;
158 [label=<gini = 0.0<br/>samples = 3<br/>value = [3, 0]<br/>class = no>, fillcolor="#e58139"] ;
154 -> 158 ;
159 [label=<marital &le; 0.474<br/>gini = 0.444<br/>samples = 3<br/>value = [2, 1]<br/>class = no>, fillcolor="#f2c09c"] ;
153 -> 159 ;
160 [label=<gini = 0.5<br/>samples = 2<br/>value = [1, 1]<br/>class = no>, fillcolor="#ffffff"] ;
159 -> 160 ;
161 [label=<gini = 0.0<br/>samples = 1<br/>value = [1, 0]<br/>class = no>, fillcolor="#e58139"] ;
159 -> 161 ;
162 [label=<marital &le; 0.613<br/>gini = 0.5<br/>samples = 2<br/>value = [1, 1]<br/>class = no>, fillcolor="#ffffff"] ;
152 -> 162 ;
163 [label=<gini = 0.0<br/>samples = 1<br/>value = [0, 1]<br/>class = yes>, fillcolor="#399de5"] ;
162 -> 163 ;
164 [label=<gini = 0.0<br/>samples = 1<br/>value = [1, 0]<br/>class = no>, fillcolor="#e58139"] ;
162 -> 164 ;
165 [label=<education &le; 0.533<br/>gini = 0.124<br/>samples = 272<br/>value = [254, 18]<br/>class = no>, fillcolor="#e78a47"] ;
149 -> 165 ;
166 [label=<default &le; -1.056<br/>gini = 0.101<br/>samples = 168<br/>value = [159, 9]<br/>class = no>, fillcolor="#e68844"] ;
165 -> 166 ;
167 [label=<gini = 0.0<br/>samples = 9<br/>value = [9, 0]<br/>class = no>, fillcolor="#e58139"] ;
166 -> 167 ;
168 [label=<default &le; -0.59<br/>gini = 0.107<br/>samples = 159<br/>value = [150, 9]<br/>class = no>, fillcolor="#e78945"] ;
166 -> 168 ;
169 [label=<marital &le; -0.22<br/>gini = 0.172<br/>samples = 21<br/>value = [19, 2]<br/>class = no>, fillcolor="#e88e4e"] ;
168 -> 169 ;
170 [label=<marital &le; -0.915<br/>gini = 0.26<br/>samples = 13<br/>value = [11, 2]<br/>class = no>, fillcolor="#ea985d"] ;
169 -> 170 ;
171 [label=<gini = 0.0<br/>samples = 3<br/>value = [3, 0]<br/>class = no>, fillcolor="#e58139"] ;
170 -> 171 ;
172 [label=<contact &le; 0.894<br/>gini = 0.32<br/>samples = 10<br/>value = [8, 2]<br/>class = no>, fillcolor="#eca06a"] ;
170 -> 172 ;
173 [label=<poutcome &le; -0.985<br/>gini = 0.408<br/>samples = 7<br/>value = [5, 2]<br/>class = no>, fillcolor="#efb388"] ;
172 -> 173 ;
174 [label=<gini = 0.5<br/>samples = 2<br/>value = [1, 1]<br/>class = no>, fillcolor="#ffffff"] ;
173 -> 174 ;
175 [label=<gini = 0.32<br/>samples = 5<br/>value = [4, 1]<br/>class = no>, fillcolor="#eca06a"] ;
173 -> 175 ;
176 [label=<gini = 0.0<br/>samples = 3<br/>value = [3, 0]<br/>class = no>, fillcolor="#e58139"] ;
172 -> 176 ;
177 [label=<gini = 0.0<br/>samples = 8<br/>value = [8, 0]<br/>class = no>, fillcolor="#e58139"] ;
169 -> 177 ;
178 [label=<contact &le; 1.573<br/>gini = 0.096<br/>samples = 138<br/>value = [131, 7]<br/>class = no>, fillcolor="#e68844"] ;
168 -> 178 ;
179 [label=<contact &le; 0.215<br/>gini = 0.083<br/>samples = 115<br/>value = [110, 5]<br/>class = no>, fillcolor="#e68742"] ;
178 -> 179 ;
180 [label=<default &le; 0.109<br/>gini = 0.088<br/>samples = 108<br/>value = [103, 5]<br/>class = no>, fillcolor="#e68743"] ;
179 -> 180 ;
181 [label=<poutcome &le; -0.985<br/>gini = 0.117<br/>samples = 32<br/>value = [30, 2]<br/>class = no>, fillcolor="#e78946"] ;
180 -> 181 ;
182 [label=<marital &le; -0.498<br/>gini = 0.208<br/>samples = 17<br/>value = [15, 2]<br/>class = no>, fillcolor="#e89253"] ;
181 -> 182 ;
183 [label=<gini = 0.0<br/>samples = 5<br/>value = [5, 0]<br/>class = no>, fillcolor="#e58139"] ;
182 -> 183 ;
184 [label=<marital &le; 0.474<br/>gini = 0.278<br/>samples = 12<br/>value = [10, 2]<br/>class = no>, fillcolor="#ea9a61"] ;
182 -> 184 ;
185 [label=<gini = 0.375<br/>samples = 4<br/>value = [3, 1]<br/>class = no>, fillcolor="#eeab7b"] ;
184 -> 185 ;
186 [label=<marital &le; 1.168<br/>gini = 0.219<br/>samples = 8<br/>value = [7, 1]<br/>class = no>, fillcolor="#e99355"] ;
184 -> 186 ;
187 [label=<gini = 0.0<br/>samples = 3<br/>value = [3, 0]<br/>class = no>, fillcolor="#e58139"] ;
186 -> 187 ;
188 [label=<gini = 0.32<br/>samples = 5<br/>value = [4, 1]<br/>class = no>, fillcolor="#eca06a"] ;
186 -> 188 ;
189 [label=<gini = 0.0<br/>samples = 15<br/>value = [15, 0]<br/>class = no>, fillcolor="#e58139"] ;
181 -> 189 ;
190 [label=<marital &le; -0.915<br/>gini = 0.076<br/>samples = 76<br/>value = [73, 3]<br/>class = no>, fillcolor="#e68641"] ;
180 -> 190 ;
191 [label=<default &le; 0.807<br/>gini = 0.159<br/>samples = 23<br/>value = [21, 2]<br/>class = no>, fillcolor="#e78d4c"] ;
190 -> 191 ;
192 [label=<gini = 0.0<br/>samples = 3<br/>value = [3, 0]<br/>class = no>, fillcolor="#e58139"] ;
191 -> 192 ;
193 [label=<poutcome &le; -0.985<br/>gini = 0.18<br/>samples = 20<br/>value = [18, 2]<br/>class = no>, fillcolor="#e88f4f"] ;
191 -> 193 ;
194 [label=<gini = 0.142<br/>samples = 13<br/>value = [12, 1]<br/>class = no>, fillcolor="#e78c49"] ;
193 -> 194 ;
195 [label=<gini = 0.245<br/>samples = 7<br/>value = [6, 1]<br/>class = no>, fillcolor="#e9965a"] ;
193 -> 195 ;
196 [label=<default &le; 0.807<br/>gini = 0.037<br/>samples = 53<br/>value = [52, 1]<br/>class = no>, fillcolor="#e6833d"] ;
190 -> 196 ;
197 [label=<poutcome &le; -0.769<br/>gini = 0.091<br/>samples = 21<br/>value = [20, 1]<br/>class = no>, fillcolor="#e68743"] ;
196 -> 197 ;
198 [label=<gini = 0.0<br/>samples = 10<br/>value = [10, 0]<br/>class = no>, fillcolor="#e58139"] ;
197 -> 198 ;
199 [label=<marital &le; 1.029<br/>gini = 0.165<br/>samples = 11<br/>value = [10, 1]<br/>class = no>, fillcolor="#e88e4d"] ;
197 -> 199 ;
200 [label=<gini = 0.0<br/>samples = 2<br/>value = [2, 0]<br/>class = no>, fillcolor="#e58139"] ;
199 -> 200 ;
201 [label=<gini = 0.198<br/>samples = 9<br/>value = [8, 1]<br/>class = no>, fillcolor="#e89152"] ;
199 -> 201 ;
202 [label=<gini = 0.0<br/>samples = 32<br/>value = [32, 0]<br/>class = no>, fillcolor="#e58139"] ;
196 -> 202 ;
203 [label=<gini = 0.0<br/>samples = 7<br/>value = [7, 0]<br/>class = no>, fillcolor="#e58139"] ;
179 -> 203 ;
204 [label=<marital &le; 0.335<br/>gini = 0.159<br/>samples = 23<br/>value = [21, 2]<br/>class = no>, fillcolor="#e78d4c"] ;
178 -> 204 ;
205 [label=<gini = 0.0<br/>samples = 11<br/>value = [11, 0]<br/>class = no>, fillcolor="#e58139"] ;
204 -> 205 ;
206 [label=<marital &le; 0.752<br/>gini = 0.278<br/>samples = 12<br/>value = [10, 2]<br/>class = no>, fillcolor="#ea9a61"] ;
204 -> 206 ;
207 [label=<gini = 0.0<br/>samples = 1<br/>value = [0, 1]<br/>class = yes>, fillcolor="#399de5"] ;
206 -> 207 ;
208 [label=<poutcome &le; -0.985<br/>gini = 0.165<br/>samples = 11<br/>value = [10, 1]<br/>class = no>, fillcolor="#e88e4d"] ;
206 -> 208 ;
209 [label=<gini = 0.0<br/>samples = 4<br/>value = [4, 0]<br/>class = no>, fillcolor="#e58139"] ;
208 -> 209 ;
210 [label=<marital &le; 1.168<br/>gini = 0.245<br/>samples = 7<br/>value = [6, 1]<br/>class = no>, fillcolor="#e9965a"] ;
208 -> 210 ;
211 [label=<gini = 0.0<br/>samples = 3<br/>value = [3, 0]<br/>class = no>, fillcolor="#e58139"] ;
210 -> 211 ;
212 [label=<default &le; 0.807<br/>gini = 0.375<br/>samples = 4<br/>value = [3, 1]<br/>class = no>, fillcolor="#eeab7b"] ;
210 -> 212 ;
213 [label=<gini = 0.444<br/>samples = 3<br/>value = [2, 1]<br/>class = no>, fillcolor="#f2c09c"] ;
212 -> 213 ;
214 [label=<gini = 0.0<br/>samples = 1<br/>value = [1, 0]<br/>class = no>, fillcolor="#e58139"] ;
212 -> 214 ;
215 [label=<marital &le; 0.335<br/>gini = 0.158<br/>samples = 104<br/>value = [95, 9]<br/>class = no>, fillcolor="#e78d4c"] ;
165 -> 215 ;
216 [label=<default &le; 0.807<br/>gini = 0.094<br/>samples = 61<br/>value = [58, 3]<br/>class = no>, fillcolor="#e68843"] ;
215 -> 216 ;
217 [label=<gini = 0.0<br/>samples = 21<br/>value = [21, 0]<br/>class = no>, fillcolor="#e58139"] ;
216 -> 217 ;
218 [label=<marital &le; -0.915<br/>gini = 0.139<br/>samples = 40<br/>value = [37, 3]<br/>class = no>, fillcolor="#e78b49"] ;
216 -> 218 ;
219 [label=<contact &le; 0.215<br/>gini = 0.17<br/>samples = 32<br/>value = [29, 3]<br/>class = no>, fillcolor="#e88e4d"] ;
218 -> 219 ;
220 [label=<poutcome &le; -0.985<br/>gini = 0.191<br/>samples = 28<br/>value = [25, 3]<br/>class = no>, fillcolor="#e89051"] ;
219 -> 220 ;
221 [label=<gini = 0.165<br/>samples = 22<br/>value = [20, 2]<br/>class = no>, fillcolor="#e88e4d"] ;
220 -> 221 ;
222 [label=<gini = 0.278<br/>samples = 6<br/>value = [5, 1]<br/>class = no>, fillcolor="#ea9a61"] ;
220 -> 222 ;
223 [label=<gini = 0.0<br/>samples = 4<br/>value = [4, 0]<br/>class = no>, fillcolor="#e58139"] ;
219 -> 223 ;
224 [label=<gini = 0.0<br/>samples = 8<br/>value = [8, 0]<br/>class = no>, fillcolor="#e58139"] ;
218 -> 224 ;
225 [label=<marital &le; 0.752<br/>gini = 0.24<br/>samples = 43<br/>value = [37, 6]<br/>class = no>, fillcolor="#e99559"] ;
215 -> 225 ;
226 [label=<gini = 0.0<br/>samples = 1<br/>value = [0, 1]<br/>class = yes>, fillcolor="#399de5"] ;
225 -> 226 ;
227 [label=<marital &le; 1.307<br/>gini = 0.21<br/>samples = 42<br/>value = [37, 5]<br/>class = no>, fillcolor="#e99254"] ;
225 -> 227 ;
228 [label=<contact &le; 0.215<br/>gini = 0.355<br/>samples = 13<br/>value = [10, 3]<br/>class = no>, fillcolor="#eda774"] ;
227 -> 228 ;
229 [label=<marital &le; 1.029<br/>gini = 0.42<br/>samples = 10<br/>value = [7, 3]<br/>class = no>, fillcolor="#f0b78e"] ;
228 -> 229 ;
230 [label=<default &le; -0.59<br/>gini = 0.346<br/>samples = 9<br/>value = [7, 2]<br/>class = no>, fillcolor="#eca572"] ;
229 -> 230 ;
231 [label=<gini = 0.0<br/>samples = 2<br/>value = [2, 0]<br/>class = no>, fillcolor="#e58139"] ;
230 -> 231 ;
232 [label=<default &le; 0.342<br/>gini = 0.408<br/>samples = 7<br/>value = [5, 2]<br/>class = no>, fillcolor="#efb388"] ;
230 -> 232 ;
233 [label=<poutcome &le; -0.985<br/>gini = 0.48<br/>samples = 5<br/>value = [3, 2]<br/>class = no>, fillcolor="#f6d5bd"] ;
232 -> 233 ;
234 [label=<gini = 0.0<br/>samples = 1<br/>value = [1, 0]<br/>class = no>, fillcolor="#e58139"] ;
233 -> 234 ;
235 [label=<gini = 0.5<br/>samples = 4<br/>value = [2, 2]<br/>class = no>, fillcolor="#ffffff"] ;
233 -> 235 ;
236 [label=<gini = 0.0<br/>samples = 2<br/>value = [2, 0]<br/>class = no>, fillcolor="#e58139"] ;
232 -> 236 ;
237 [label=<gini = 0.0<br/>samples = 1<br/>value = [0, 1]<br/>class = yes>, fillcolor="#399de5"] ;
229 -> 237 ;
238 [label=<gini = 0.0<br/>samples = 3<br/>value = [3, 0]<br/>class = no>, fillcolor="#e58139"] ;
228 -> 238 ;
239 [label=<default &le; 0.807<br/>gini = 0.128<br/>samples = 29<br/>value = [27, 2]<br/>class = no>, fillcolor="#e78a48"] ;
227 -> 239 ;
240 [label=<default &le; 0.109<br/>gini = 0.208<br/>samples = 17<br/>value = [15, 2]<br/>class = no>, fillcolor="#e89253"] ;
239 -> 240 ;
241 [label=<poutcome &le; -0.985<br/>gini = 0.278<br/>samples = 6<br/>value = [5, 1]<br/>class = no>, fillcolor="#ea9a61"] ;
240 -> 241 ;
242 [label=<gini = 0.375<br/>samples = 4<br/>value = [3, 1]<br/>class = no>, fillcolor="#eeab7b"] ;
241 -> 242 ;
243 [label=<gini = 0.0<br/>samples = 2<br/>value = [2, 0]<br/>class = no>, fillcolor="#e58139"] ;
241 -> 243 ;
244 [label=<poutcome &le; -0.985<br/>gini = 0.165<br/>samples = 11<br/>value = [10, 1]<br/>class = no>, fillcolor="#e88e4d"] ;
240 -> 244 ;
245 [label=<gini = 0.0<br/>samples = 6<br/>value = [6, 0]<br/>class = no>, fillcolor="#e58139"] ;
244 -> 245 ;
246 [label=<gini = 0.32<br/>samples = 5<br/>value = [4, 1]<br/>class = no>, fillcolor="#eca06a"] ;
244 -> 246 ;
247 [label=<gini = 0.0<br/>samples = 12<br/>value = [12, 0]<br/>class = no>, fillcolor="#e58139"] ;
239 -> 247 ;
248 [label=<marital &le; 0.752<br/>gini = 0.169<br/>samples = 333<br/>value = [302, 31]<br/>class = no>, fillcolor="#e88e4d"] ;
148 -> 248 ;
249 [label=<marital &le; -0.082<br/>gini = 0.15<br/>samples = 233<br/>value = [214, 19]<br/>class = no>, fillcolor="#e78c4b"] ;
248 -> 249 ;
250 [label=<default &le; 0.109<br/>gini = 0.167<br/>samples = 185<br/>value = [168, 17]<br/>class = no>, fillcolor="#e88e4d"] ;
249 -> 250 ;
251 [label=<marital &le; -0.637<br/>gini = 0.108<br/>samples = 87<br/>value = [82, 5]<br/>class = no>, fillcolor="#e78945"] ;
250 -> 251 ;
252 [label=<default &le; -1.056<br/>gini = 0.129<br/>samples = 72<br/>value = [67, 5]<br/>class = no>, fillcolor="#e78a48"] ;
251 -> 252 ;
253 [label=<contact &le; 0.894<br/>gini = 0.231<br/>samples = 15<br/>value = [13, 2]<br/>class = no>, fillcolor="#e99457"] ;
252 -> 253 ;
254 [label=<poutcome &le; -0.985<br/>gini = 0.153<br/>samples = 12<br/>value = [11, 1]<br/>class = no>, fillcolor="#e78c4b"] ;
253 -> 254 ;
255 [label=<gini = 0.0<br/>samples = 4<br/>value = [4, 0]<br/>class = no>, fillcolor="#e58139"] ;
254 -> 255 ;
256 [label=<default &le; -1.521<br/>gini = 0.219<br/>samples = 8<br/>value = [7, 1]<br/>class = no>, fillcolor="#e99355"] ;
254 -> 256 ;
257 [label=<education &le; 0.533<br/>gini = 0.278<br/>samples = 6<br/>value = [5, 1]<br/>class = no>, fillcolor="#ea9a61"] ;
256 -> 257 ;
258 [label=<gini = 0.32<br/>samples = 5<br/>value = [4, 1]<br/>class = no>, fillcolor="#eca06a"] ;
257 -> 258 ;
259 [label=<gini = 0.0<br/>samples = 1<br/>value = [1, 0]<br/>class = no>, fillcolor="#e58139"] ;
257 -> 259 ;
260 [label=<gini = 0.0<br/>samples = 2<br/>value = [2, 0]<br/>class = no>, fillcolor="#e58139"] ;
256 -> 260 ;
261 [label=<education &le; 0.533<br/>gini = 0.444<br/>samples = 3<br/>value = [2, 1]<br/>class = no>, fillcolor="#f2c09c"] ;
253 -> 261 ;
262 [label=<gini = 0.0<br/>samples = 1<br/>value = [1, 0]<br/>class = no>, fillcolor="#e58139"] ;
261 -> 262 ;
263 [label=<gini = 0.5<br/>samples = 2<br/>value = [1, 1]<br/>class = no>, fillcolor="#ffffff"] ;
261 -> 263 ;
264 [label=<poutcome &le; -1.201<br/>gini = 0.1<br/>samples = 57<br/>value = [54, 3]<br/>class = no>, fillcolor="#e68844"] ;
252 -> 264 ;
265 [label=<marital &le; -0.915<br/>gini = 0.278<br/>samples = 12<br/>value = [10, 2]<br/>class = no>, fillcolor="#ea9a61"] ;
264 -> 265 ;
266 [label=<default &le; -0.59<br/>gini = 0.198<br/>samples = 9<br/>value = [8, 1]<br/>class = no>, fillcolor="#e89152"] ;
265 -> 266 ;
267 [label=<gini = 0.0<br/>samples = 2<br/>value = [2, 0]<br/>class = no>, fillcolor="#e58139"] ;
266 -> 267 ;
268 [label=<education &le; 0.533<br/>gini = 0.245<br/>samples = 7<br/>value = [6, 1]<br/>class = no>, fillcolor="#e9965a"] ;
266 -> 268 ;
269 [label=<contact &le; 0.894<br/>gini = 0.32<br/>samples = 5<br/>value = [4, 1]<br/>class = no>, fillcolor="#eca06a"] ;
268 -> 269 ;
270 [label=<gini = 0.375<br/>samples = 4<br/>value = [3, 1]<br/>class = no>, fillcolor="#eeab7b"] ;
269 -> 270 ;
271 [label=<gini = 0.0<br/>samples = 1<br/>value = [1, 0]<br/>class = no>, fillcolor="#e58139"] ;
269 -> 271 ;
272 [label=<gini = 0.0<br/>samples = 2<br/>value = [2, 0]<br/>class = no>, fillcolor="#e58139"] ;
268 -> 272 ;
273 [label=<contact &le; 0.894<br/>gini = 0.444<br/>samples = 3<br/>value = [2, 1]<br/>class = no>, fillcolor="#f2c09c"] ;
265 -> 273 ;
274 [label=<default &le; -0.59<br/>gini = 0.5<br/>samples = 2<br/>value = [1, 1]<br/>class = no>, fillcolor="#ffffff"] ;
273 -> 274 ;
275 [label=<gini = 0.0<br/>samples = 1<br/>value = [0, 1]<br/>class = yes>, fillcolor="#399de5"] ;
274 -> 275 ;
276 [label=<gini = 0.0<br/>samples = 1<br/>value = [1, 0]<br/>class = no>, fillcolor="#e58139"] ;
274 -> 276 ;
277 [label=<gini = 0.0<br/>samples = 1<br/>value = [1, 0]<br/>class = no>, fillcolor="#e58139"] ;
273 -> 277 ;
278 [label=<education &le; 0.533<br/>gini = 0.043<br/>samples = 45<br/>value = [44, 1]<br/>class = no>, fillcolor="#e6843d"] ;
264 -> 278 ;
279 [label=<default &le; -0.59<br/>gini = 0.087<br/>samples = 22<br/>value = [21, 1]<br/>class = no>, fillcolor="#e68742"] ;
278 -> 279 ;
280 [label=<contact &le; 0.894<br/>gini = 0.142<br/>samples = 13<br/>value = [12, 1]<br/>class = no>, fillcolor="#e78c49"] ;
279 -> 280 ;
281 [label=<gini = 0.165<br/>samples = 11<br/>value = [10, 1]<br/>class = no>, fillcolor="#e88e4d"] ;
280 -> 281 ;
282 [label=<gini = 0.0<br/>samples = 2<br/>value = [2, 0]<br/>class = no>, fillcolor="#e58139"] ;
280 -> 282 ;
283 [label=<gini = 0.0<br/>samples = 9<br/>value = [9, 0]<br/>class = no>, fillcolor="#e58139"] ;
279 -> 283 ;
284 [label=<gini = 0.0<br/>samples = 23<br/>value = [23, 0]<br/>class = no>, fillcolor="#e58139"] ;
278 -> 284 ;
285 [label=<gini = 0.0<br/>samples = 15<br/>value = [15, 0]<br/>class = no>, fillcolor="#e58139"] ;
251 -> 285 ;
286 [label=<marital &le; -0.915<br/>gini = 0.215<br/>samples = 98<br/>value = [86, 12]<br/>class = no>, fillcolor="#e99355"] ;
250 -> 286 ;
287 [label=<contact &le; 0.894<br/>gini = 0.185<br/>samples = 87<br/>value = [78, 9]<br/>class = no>, fillcolor="#e89050"] ;
286 -> 287 ;
288 [label=<poutcome &le; -0.985<br/>gini = 0.209<br/>samples = 76<br/>value = [67, 9]<br/>class = no>, fillcolor="#e89254"] ;
287 -> 288 ;
289 [label=<default &le; 0.807<br/>gini = 0.165<br/>samples = 55<br/>value = [50, 5]<br/>class = no>, fillcolor="#e88e4d"] ;
288 -> 289 ;
290 [label=<gini = 0.0<br/>samples = 1<br/>value = [1, 0]<br/>class = no>, fillcolor="#e58139"] ;
289 -> 290 ;
291 [label=<education &le; 0.533<br/>gini = 0.168<br/>samples = 54<br/>value = [49, 5]<br/>class = no>, fillcolor="#e88e4d"] ;
289 -> 291 ;
292 [label=<gini = 0.18<br/>samples = 30<br/>value = [27, 3]<br/>class = no>, fillcolor="#e88f4f"] ;
291 -> 292 ;
293 [label=<gini = 0.153<br/>samples = 24<br/>value = [22, 2]<br/>class = no>, fillcolor="#e78c4b"] ;
291 -> 293 ;
294 [label=<education &le; 0.533<br/>gini = 0.308<br/>samples = 21<br/>value = [17, 4]<br/>class = no>, fillcolor="#eb9f68"] ;
288 -> 294 ;
295 [label=<default &le; 0.807<br/>gini = 0.408<br/>samples = 7<br/>value = [5, 2]<br/>class = no>, fillcolor="#efb388"] ;
294 -> 295 ;
296 [label=<gini = 0.0<br/>samples = 1<br/>value = [1, 0]<br/>class = no>, fillcolor="#e58139"] ;
295 -> 296 ;
297 [label=<gini = 0.444<br/>samples = 6<br/>value = [4, 2]<br/>class = no>, fillcolor="#f2c09c"] ;
295 -> 297 ;
298 [label=<default &le; 0.807<br/>gini = 0.245<br/>samples = 14<br/>value = [12, 2]<br/>class = no>, fillcolor="#e9965a"] ;
294 -> 298 ;
299 [label=<gini = 0.0<br/>samples = 1<br/>value = [1, 0]<br/>class = no>, fillcolor="#e58139"] ;
298 -> 299 ;
300 [label=<gini = 0.26<br/>samples = 13<br/>value = [11, 2]<br/>class = no>, fillcolor="#ea985d"] ;
298 -> 300 ;
301 [label=<gini = 0.0<br/>samples = 11<br/>value = [11, 0]<br/>class = no>, fillcolor="#e58139"] ;
287 -> 301 ;
302 [label=<education &le; 0.533<br/>gini = 0.397<br/>samples = 11<br/>value = [8, 3]<br/>class = no>, fillcolor="#efb083"] ;
286 -> 302 ;
303 [label=<marital &le; -0.359<br/>gini = 0.469<br/>samples = 8<br/>value = [5, 3]<br/>class = no>, fillcolor="#f5cdb0"] ;
302 -> 303 ;
304 [label=<default &le; 0.807<br/>gini = 0.444<br/>samples = 6<br/>value = [4, 2]<br/>class = no>, fillcolor="#f2c09c"] ;
303 -> 304 ;
305 [label=<gini = 0.444<br/>samples = 3<br/>value = [2, 1]<br/>class = no>, fillcolor="#f2c09c"] ;
304 -> 305 ;
306 [label=<gini = 0.444<br/>samples = 3<br/>value = [2, 1]<br/>class = no>, fillcolor="#f2c09c"] ;
304 -> 306 ;
307 [label=<gini = 0.5<br/>samples = 2<br/>value = [1, 1]<br/>class = no>, fillcolor="#ffffff"] ;
303 -> 307 ;
308 [label=<gini = 0.0<br/>samples = 3<br/>value = [3, 0]<br/>class = no>, fillcolor="#e58139"] ;
302 -> 308 ;
309 [label=<contact &le; 0.894<br/>gini = 0.08<br/>samples = 48<br/>value = [46, 2]<br/>class = no>, fillcolor="#e68642"] ;
249 -> 309 ;
310 [label=<default &le; 0.109<br/>gini = 0.05<br/>samples = 39<br/>value = [38, 1]<br/>class = no>, fillcolor="#e6843e"] ;
309 -> 310 ;
311 [label=<marital &le; 0.196<br/>gini = 0.18<br/>samples = 10<br/>value = [9, 1]<br/>class = no>, fillcolor="#e88f4f"] ;
310 -> 311 ;
312 [label=<poutcome &le; -0.985<br/>gini = 0.444<br/>samples = 3<br/>value = [2, 1]<br/>class = no>, fillcolor="#f2c09c"] ;
311 -> 312 ;
313 [label=<gini = 0.0<br/>samples = 2<br/>value = [2, 0]<br/>class = no>, fillcolor="#e58139"] ;
312 -> 313 ;
314 [label=<gini = 0.0<br/>samples = 1<br/>value = [0, 1]<br/>class = yes>, fillcolor="#399de5"] ;
312 -> 314 ;
315 [label=<gini = 0.0<br/>samples = 7<br/>value = [7, 0]<br/>class = no>, fillcolor="#e58139"] ;
311 -> 315 ;
316 [label=<gini = 0.0<br/>samples = 29<br/>value = [29, 0]<br/>class = no>, fillcolor="#e58139"] ;
310 -> 316 ;
317 [label=<poutcome &le; -0.985<br/>gini = 0.198<br/>samples = 9<br/>value = [8, 1]<br/>class = no>, fillcolor="#e89152"] ;
309 -> 317 ;
318 [label=<marital &le; 0.474<br/>gini = 0.32<br/>samples = 5<br/>value = [4, 1]<br/>class = no>, fillcolor="#eca06a"] ;
317 -> 318 ;
319 [label=<marital &le; 0.196<br/>gini = 0.444<br/>samples = 3<br/>value = [2, 1]<br/>class = no>, fillcolor="#f2c09c"] ;
318 -> 319 ;
320 [label=<gini = 0.0<br/>samples = 1<br/>value = [1, 0]<br/>class = no>, fillcolor="#e58139"] ;
319 -> 320 ;
321 [label=<default &le; -0.357<br/>gini = 0.5<br/>samples = 2<br/>value = [1, 1]<br/>class = no>, fillcolor="#ffffff"] ;
319 -> 321 ;
322 [label=<gini = 0.0<br/>samples = 1<br/>value = [1, 0]<br/>class = no>, fillcolor="#e58139"] ;
321 -> 322 ;
323 [label=<gini = 0.0<br/>samples = 1<br/>value = [0, 1]<br/>class = yes>, fillcolor="#399de5"] ;
321 -> 323 ;
324 [label=<gini = 0.0<br/>samples = 2<br/>value = [2, 0]<br/>class = no>, fillcolor="#e58139"] ;
318 -> 324 ;
325 [label=<gini = 0.0<br/>samples = 4<br/>value = [4, 0]<br/>class = no>, fillcolor="#e58139"] ;
317 -> 325 ;
326 [label=<marital &le; 1.029<br/>gini = 0.211<br/>samples = 100<br/>value = [88, 12]<br/>class = no>, fillcolor="#e99254"] ;
248 -> 326 ;
327 [label=<education &le; 0.533<br/>gini = 0.36<br/>samples = 17<br/>value = [13, 4]<br/>class = no>, fillcolor="#eda876"] ;
326 -> 327 ;
328 [label=<default &le; -0.59<br/>gini = 0.245<br/>samples = 14<br/>value = [12, 2]<br/>class = no>, fillcolor="#e9965a"] ;
327 -> 328 ;
329 [label=<gini = 0.0<br/>samples = 1<br/>value = [0, 1]<br/>class = yes>, fillcolor="#399de5"] ;
328 -> 329 ;
330 [label=<contact &le; 0.894<br/>gini = 0.142<br/>samples = 13<br/>value = [12, 1]<br/>class = no>, fillcolor="#e78c49"] ;
328 -> 330 ;
331 [label=<gini = 0.0<br/>samples = 11<br/>value = [11, 0]<br/>class = no>, fillcolor="#e58139"] ;
330 -> 331 ;
332 [label=<gini = 0.5<br/>samples = 2<br/>value = [1, 1]<br/>class = no>, fillcolor="#ffffff"] ;
330 -> 332 ;
333 [label=<default &le; -0.59<br/>gini = 0.444<br/>samples = 3<br/>value = [1, 2]<br/>class = yes>, fillcolor="#9ccef2"] ;
327 -> 333 ;
334 [label=<gini = 0.0<br/>samples = 1<br/>value = [1, 0]<br/>class = no>, fillcolor="#e58139"] ;
333 -> 334 ;
335 [label=<gini = 0.0<br/>samples = 2<br/>value = [0, 2]<br/>class = yes>, fillcolor="#399de5"] ;
333 -> 335 ;
336 [label=<default &le; -0.59<br/>gini = 0.174<br/>samples = 83<br/>value = [75, 8]<br/>class = no>, fillcolor="#e88e4e"] ;
326 -> 336 ;
337 [label=<gini = 0.0<br/>samples = 4<br/>value = [4, 0]<br/>class = no>, fillcolor="#e58139"] ;
336 -> 337 ;
338 [label=<marital &le; 1.585<br/>gini = 0.182<br/>samples = 79<br/>value = [71, 8]<br/>class = no>, fillcolor="#e88f4f"] ;
336 -> 338 ;
339 [label=<default &le; 0.109<br/>gini = 0.171<br/>samples = 74<br/>value = [67, 7]<br/>class = no>, fillcolor="#e88e4e"] ;
338 -> 339 ;
340 [label=<education &le; 0.533<br/>gini = 0.219<br/>samples = 16<br/>value = [14, 2]<br/>class = no>, fillcolor="#e99355"] ;
339 -> 340 ;
341 [label=<gini = 0.0<br/>samples = 7<br/>value = [7, 0]<br/>class = no>, fillcolor="#e58139"] ;
340 -> 341 ;
342 [label=<contact &le; 0.894<br/>gini = 0.346<br/>samples = 9<br/>value = [7, 2]<br/>class = no>, fillcolor="#eca572"] ;
340 -> 342 ;
343 [label=<poutcome &le; -0.985<br/>gini = 0.278<br/>samples = 6<br/>value = [5, 1]<br/>class = no>, fillcolor="#ea9a61"] ;
342 -> 343 ;
344 [label=<gini = 0.0<br/>samples = 3<br/>value = [3, 0]<br/>class = no>, fillcolor="#e58139"] ;
343 -> 344 ;
345 [label=<gini = 0.444<br/>samples = 3<br/>value = [2, 1]<br/>class = no>, fillcolor="#f2c09c"] ;
343 -> 345 ;
346 [label=<gini = 0.444<br/>samples = 3<br/>value = [2, 1]<br/>class = no>, fillcolor="#f2c09c"] ;
342 -> 346 ;
347 [label=<education &le; 0.533<br/>gini = 0.158<br/>samples = 58<br/>value = [53, 5]<br/>class = no>, fillcolor="#e78d4c"] ;
339 -> 347 ;
348 [label=<default &le; 0.807<br/>gini = 0.204<br/>samples = 26<br/>value = [23, 3]<br/>class = no>, fillcolor="#e89153"] ;
347 -> 348 ;
349 [label=<contact &le; 0.894<br/>gini = 0.305<br/>samples = 16<br/>value = [13, 3]<br/>class = no>, fillcolor="#eb9e67"] ;
348 -> 349 ;
350 [label=<poutcome &le; -0.985<br/>gini = 0.337<br/>samples = 14<br/>value = [11, 3]<br/>class = no>, fillcolor="#eca36f"] ;
349 -> 350 ;
351 [label=<gini = 0.346<br/>samples = 9<br/>value = [7, 2]<br/>class = no>, fillcolor="#eca572"] ;
350 -> 351 ;
352 [label=<gini = 0.32<br/>samples = 5<br/>value = [4, 1]<br/>class = no>, fillcolor="#eca06a"] ;
350 -> 352 ;
353 [label=<gini = 0.0<br/>samples = 2<br/>value = [2, 0]<br/>class = no>, fillcolor="#e58139"] ;
349 -> 353 ;
354 [label=<gini = 0.0<br/>samples = 10<br/>value = [10, 0]<br/>class = no>, fillcolor="#e58139"] ;
348 -> 354 ;
355 [label=<default &le; 0.807<br/>gini = 0.117<br/>samples = 32<br/>value = [30, 2]<br/>class = no>, fillcolor="#e78946"] ;
347 -> 355 ;
356 [label=<gini = 0.0<br/>samples = 15<br/>value = [15, 0]<br/>class = no>, fillcolor="#e58139"] ;
355 -> 356 ;
357 [label=<poutcome &le; -0.985<br/>gini = 0.208<br/>samples = 17<br/>value = [15, 2]<br/>class = no>, fillcolor="#e89253"] ;
355 -> 357 ;
358 [label=<contact &le; 0.894<br/>gini = 0.26<br/>samples = 13<br/>value = [11, 2]<br/>class = no>, fillcolor="#ea985d"] ;
357 -> 358 ;
359 [label=<gini = 0.245<br/>samples = 7<br/>value = [6, 1]<br/>class = no>, fillcolor="#e9965a"] ;
358 -> 359 ;
360 [label=<gini = 0.278<br/>samples = 6<br/>value = [5, 1]<br/>class = no>, fillcolor="#ea9a61"] ;
358 -> 360 ;
361 [label=<gini = 0.0<br/>samples = 4<br/>value = [4, 0]<br/>class = no>, fillcolor="#e58139"] ;
357 -> 361 ;
362 [label=<poutcome &le; -0.769<br/>gini = 0.32<br/>samples = 5<br/>value = [4, 1]<br/>class = no>, fillcolor="#eca06a"] ;
338 -> 362 ;
363 [label=<gini = 0.0<br/>samples = 1<br/>value = [0, 1]<br/>class = yes>, fillcolor="#399de5"] ;
362 -> 363 ;
364 [label=<gini = 0.0<br/>samples = 4<br/>value = [4, 0]<br/>class = no>, fillcolor="#e58139"] ;
362 -> 364 ;
365 [label=<marital &le; 0.196<br/>gini = 0.444<br/>samples = 3<br/>value = [2, 1]<br/>class = no>, fillcolor="#f2c09c"] ;
115 -> 365 ;
366 [label=<poutcome &le; -0.985<br/>gini = 0.5<br/>samples = 2<br/>value = [1, 1]<br/>class = no>, fillcolor="#ffffff"] ;
365 -> 366 ;
367 [label=<gini = 0.0<br/>samples = 1<br/>value = [0, 1]<br/>class = yes>, fillcolor="#399de5"] ;
366 -> 367 ;
368 [label=<gini = 0.0<br/>samples = 1<br/>value = [1, 0]<br/>class = no>, fillcolor="#e58139"] ;
366 -> 368 ;
369 [label=<gini = 0.0<br/>samples = 1<br/>value = [1, 0]<br/>class = no>, fillcolor="#e58139"] ;
365 -> 369 ;
370 [label=<marital &le; 1.168<br/>gini = 0.287<br/>samples = 23<br/>value = [19, 4]<br/>class = no>, fillcolor="#ea9c63"] ;
114 -> 370 ;
371 [label=<marital &le; -0.082<br/>gini = 0.375<br/>samples = 16<br/>value = [12, 4]<br/>class = no>, fillcolor="#eeab7b"] ;
370 -> 371 ;
372 [label=<loan &le; 0.408<br/>gini = 0.165<br/>samples = 11<br/>value = [10, 1]<br/>class = no>, fillcolor="#e88e4d"] ;
371 -> 372 ;
373 [label=<gini = 0.0<br/>samples = 7<br/>value = [7, 0]<br/>class = no>, fillcolor="#e58139"] ;
372 -> 373 ;
374 [label=<marital &le; -0.915<br/>gini = 0.375<br/>samples = 4<br/>value = [3, 1]<br/>class = no>, fillcolor="#eeab7b"] ;
372 -> 374 ;
375 [label=<poutcome &le; -1.201<br/>gini = 0.5<br/>samples = 2<br/>value = [1, 1]<br/>class = no>, fillcolor="#ffffff"] ;
374 -> 375 ;
376 [label=<gini = 0.0<br/>samples = 1<br/>value = [1, 0]<br/>class = no>, fillcolor="#e58139"] ;
375 -> 376 ;
377 [label=<gini = 0.0<br/>samples = 1<br/>value = [0, 1]<br/>class = yes>, fillcolor="#399de5"] ;
375 -> 377 ;
378 [label=<gini = 0.0<br/>samples = 2<br/>value = [2, 0]<br/>class = no>, fillcolor="#e58139"] ;
374 -> 378 ;
379 [label=<loan &le; -0.101<br/>gini = 0.48<br/>samples = 5<br/>value = [2, 3]<br/>class = yes>, fillcolor="#bddef6"] ;
371 -> 379 ;
380 [label=<poutcome &le; -0.769<br/>gini = 0.375<br/>samples = 4<br/>value = [1, 3]<br/>class = yes>, fillcolor="#7bbeee"] ;
379 -> 380 ;
381 [label=<gini = 0.0<br/>samples = 2<br/>value = [0, 2]<br/>class = yes>, fillcolor="#399de5"] ;
380 -> 381 ;
382 [label=<marital &le; 0.474<br/>gini = 0.5<br/>samples = 2<br/>value = [1, 1]<br/>class = no>, fillcolor="#ffffff"] ;
380 -> 382 ;
383 [label=<gini = 0.0<br/>samples = 1<br/>value = [1, 0]<br/>class = no>, fillcolor="#e58139"] ;
382 -> 383 ;
384 [label=<gini = 0.0<br/>samples = 1<br/>value = [0, 1]<br/>class = yes>, fillcolor="#399de5"] ;
382 -> 384 ;
385 [label=<gini = 0.0<br/>samples = 1<br/>value = [1, 0]<br/>class = no>, fillcolor="#e58139"] ;
379 -> 385 ;
386 [label=<gini = 0.0<br/>samples = 7<br/>value = [7, 0]<br/>class = no>, fillcolor="#e58139"] ;
370 -> 386 ;
387 [label=<education &le; -1.114<br/>gini = 0.499<br/>samples = 82<br/>value = [43, 39]<br/>class = no>, fillcolor="#fdf3ed"] ;
5 -> 387 ;
388 [label=<default &le; 0.109<br/>gini = 0.32<br/>samples = 10<br/>value = [8, 2]<br/>class = no>, fillcolor="#eca06a"] ;
387 -> 388 ;
389 [label=<y &le; -1.122<br/>gini = 0.48<br/>samples = 5<br/>value = [3, 2]<br/>class = no>, fillcolor="#f6d5bd"] ;
388 -> 389 ;
390 [label=<gini = 0.0<br/>samples = 1<br/>value = [1, 0]<br/>class = no>, fillcolor="#e58139"] ;
389 -> 390 ;
391 [label=<poutcome &le; 0.093<br/>gini = 0.5<br/>samples = 4<br/>value = [2, 2]<br/>class = no>, fillcolor="#ffffff"] ;
389 -> 391 ;
392 [label=<marital &le; -0.359<br/>gini = 0.444<br/>samples = 3<br/>value = [1, 2]<br/>class = yes>, fillcolor="#9ccef2"] ;
391 -> 392 ;
393 [label=<gini = 0.0<br/>samples = 1<br/>value = [0, 1]<br/>class = yes>, fillcolor="#399de5"] ;
392 -> 393 ;
394 [label=<gini = 0.5<br/>samples = 2<br/>value = [1, 1]<br/>class = no>, fillcolor="#ffffff"] ;
392 -> 394 ;
395 [label=<gini = 0.0<br/>samples = 1<br/>value = [1, 0]<br/>class = no>, fillcolor="#e58139"] ;
391 -> 395 ;
396 [label=<gini = 0.0<br/>samples = 5<br/>value = [5, 0]<br/>class = no>, fillcolor="#e58139"] ;
388 -> 396 ;
397 [label=<default &le; 0.109<br/>gini = 0.5<br/>samples = 72<br/>value = [35, 37]<br/>class = yes>, fillcolor="#f4fafe"] ;
387 -> 397 ;
398 [label=<education &le; 0.533<br/>gini = 0.463<br/>samples = 22<br/>value = [8, 14]<br/>class = yes>, fillcolor="#aad5f4"] ;
397 -> 398 ;
399 [label=<loan &le; 0.408<br/>gini = 0.486<br/>samples = 12<br/>value = [7, 5]<br/>class = no>, fillcolor="#f8dbc6"] ;
398 -> 399 ;
400 [label=<marital &le; 0.057<br/>gini = 0.444<br/>samples = 6<br/>value = [2, 4]<br/>class = yes>, fillcolor="#9ccef2"] ;
399 -> 400 ;
401 [label=<marital &le; -0.498<br/>gini = 0.444<br/>samples = 3<br/>value = [2, 1]<br/>class = no>, fillcolor="#f2c09c"] ;
400 -> 401 ;
402 [label=<gini = 0.0<br/>samples = 1<br/>value = [0, 1]<br/>class = yes>, fillcolor="#399de5"] ;
401 -> 402 ;
403 [label=<gini = 0.0<br/>samples = 2<br/>value = [2, 0]<br/>class = no>, fillcolor="#e58139"] ;
401 -> 403 ;
404 [label=<gini = 0.0<br/>samples = 3<br/>value = [0, 3]<br/>class = yes>, fillcolor="#399de5"] ;
400 -> 404 ;
405 [label=<marital &le; -0.359<br/>gini = 0.278<br/>samples = 6<br/>value = [5, 1]<br/>class = no>, fillcolor="#ea9a61"] ;
399 -> 405 ;
406 [label=<default &le; -1.056<br/>gini = 0.5<br/>samples = 2<br/>value = [1, 1]<br/>class = no>, fillcolor="#ffffff"] ;
405 -> 406 ;
407 [label=<gini = 0.0<br/>samples = 1<br/>value = [0, 1]<br/>class = yes>, fillcolor="#399de5"] ;
406 -> 407 ;
408 [label=<gini = 0.0<br/>samples = 1<br/>value = [1, 0]<br/>class = no>, fillcolor="#e58139"] ;
406 -> 408 ;
409 [label=<gini = 0.0<br/>samples = 4<br/>value = [4, 0]<br/>class = no>, fillcolor="#e58139"] ;
405 -> 409 ;
410 [label=<y &le; -1.122<br/>gini = 0.18<br/>samples = 10<br/>value = [1, 9]<br/>class = yes>, fillcolor="#4fa8e8"] ;
398 -> 410 ;
411 [label=<marital &le; 1.029<br/>gini = 0.444<br/>samples = 3<br/>value = [1, 2]<br/>class = yes>, fillcolor="#9ccef2"] ;
410 -> 411 ;
412 [label=<gini = 0.0<br/>samples = 2<br/>value = [0, 2]<br/>class = yes>, fillcolor="#399de5"] ;
411 -> 412 ;
413 [label=<gini = 0.0<br/>samples = 1<br/>value = [1, 0]<br/>class = no>, fillcolor="#e58139"] ;
411 -> 413 ;
414 [label=<gini = 0.0<br/>samples = 7<br/>value = [0, 7]<br/>class = yes>, fillcolor="#399de5"] ;
410 -> 414 ;
415 [label=<default &le; 1.273<br/>gini = 0.497<br/>samples = 50<br/>value = [27, 23]<br/>class = no>, fillcolor="#fbece2"] ;
397 -> 415 ;
416 [label=<y &le; -1.122<br/>gini = 0.488<br/>samples = 45<br/>value = [26, 19]<br/>class = no>, fillcolor="#f8ddca"] ;
415 -> 416 ;
417 [label=<contact &le; 0.215<br/>gini = 0.444<br/>samples = 9<br/>value = [3, 6]<br/>class = yes>, fillcolor="#9ccef2"] ;
416 -> 417 ;
418 [label=<poutcome &le; 0.093<br/>gini = 0.278<br/>samples = 6<br/>value = [1, 5]<br/>class = yes>, fillcolor="#61b1ea"] ;
417 -> 418 ;
419 [label=<gini = 0.0<br/>samples = 4<br/>value = [0, 4]<br/>class = yes>, fillcolor="#399de5"] ;
418 -> 419 ;
420 [label=<loan &le; -0.101<br/>gini = 0.5<br/>samples = 2<br/>value = [1, 1]<br/>class = no>, fillcolor="#ffffff"] ;
418 -> 420 ;
421 [label=<gini = 0.0<br/>samples = 1<br/>value = [0, 1]<br/>class = yes>, fillcolor="#399de5"] ;
420 -> 421 ;
422 [label=<gini = 0.0<br/>samples = 1<br/>value = [1, 0]<br/>class = no>, fillcolor="#e58139"] ;
420 -> 422 ;
423 [label=<poutcome &le; 0.093<br/>gini = 0.444<br/>samples = 3<br/>value = [2, 1]<br/>class = no>, fillcolor="#f2c09c"] ;
417 -> 423 ;
424 [label=<gini = 0.0<br/>samples = 2<br/>value = [2, 0]<br/>class = no>, fillcolor="#e58139"] ;
423 -> 424 ;
425 [label=<gini = 0.0<br/>samples = 1<br/>value = [0, 1]<br/>class = yes>, fillcolor="#399de5"] ;
423 -> 425 ;
426 [label=<loan &le; -0.101<br/>gini = 0.461<br/>samples = 36<br/>value = [23, 13]<br/>class = no>, fillcolor="#f4c8a9"] ;
416 -> 426 ;
427 [label=<marital &le; -0.498<br/>gini = 0.375<br/>samples = 16<br/>value = [12, 4]<br/>class = no>, fillcolor="#eeab7b"] ;
426 -> 427 ;
428 [label=<gini = 0.0<br/>samples = 3<br/>value = [3, 0]<br/>class = no>, fillcolor="#e58139"] ;
427 -> 428 ;
429 [label=<marital &le; 0.335<br/>gini = 0.426<br/>samples = 13<br/>value = [9, 4]<br/>class = no>, fillcolor="#f1b991"] ;
427 -> 429 ;
430 [label=<gini = 0.0<br/>samples = 1<br/>value = [0, 1]<br/>class = yes>, fillcolor="#399de5"] ;
429 -> 430 ;
431 [label=<default &le; 0.807<br/>gini = 0.375<br/>samples = 12<br/>value = [9, 3]<br/>class = no>, fillcolor="#eeab7b"] ;
429 -> 431 ;
432 [label=<gini = 0.0<br/>samples = 3<br/>value = [3, 0]<br/>class = no>, fillcolor="#e58139"] ;
431 -> 432 ;
433 [label=<education &le; 0.533<br/>gini = 0.444<br/>samples = 9<br/>value = [6, 3]<br/>class = no>, fillcolor="#f2c09c"] ;
431 -> 433 ;
434 [label=<marital &le; 1.029<br/>gini = 0.444<br/>samples = 3<br/>value = [1, 2]<br/>class = yes>, fillcolor="#9ccef2"] ;
433 -> 434 ;
435 [label=<gini = 0.0<br/>samples = 1<br/>value = [0, 1]<br/>class = yes>, fillcolor="#399de5"] ;
434 -> 435 ;
436 [label=<gini = 0.5<br/>samples = 2<br/>value = [1, 1]<br/>class = no>, fillcolor="#ffffff"] ;
434 -> 436 ;
437 [label=<marital &le; 1.029<br/>gini = 0.278<br/>samples = 6<br/>value = [5, 1]<br/>class = no>, fillcolor="#ea9a61"] ;
433 -> 437 ;
438 [label=<gini = 0.0<br/>samples = 2<br/>value = [2, 0]<br/>class = no>, fillcolor="#e58139"] ;
437 -> 438 ;
439 [label=<education &le; 2.18<br/>gini = 0.375<br/>samples = 4<br/>value = [3, 1]<br/>class = no>, fillcolor="#eeab7b"] ;
437 -> 439 ;
440 [label=<gini = 0.444<br/>samples = 3<br/>value = [2, 1]<br/>class = no>, fillcolor="#f2c09c"] ;
439 -> 440 ;
441 [label=<gini = 0.0<br/>samples = 1<br/>value = [1, 0]<br/>class = no>, fillcolor="#e58139"] ;
439 -> 441 ;
442 [label=<marital &le; 0.474<br/>gini = 0.495<br/>samples = 20<br/>value = [11, 9]<br/>class = no>, fillcolor="#fae8db"] ;
426 -> 442 ;
443 [label=<marital &le; 0.196<br/>gini = 0.496<br/>samples = 11<br/>value = [5, 6]<br/>class = yes>, fillcolor="#deeffb"] ;
442 -> 443 ;
444 [label=<marital &le; -0.498<br/>gini = 0.494<br/>samples = 9<br/>value = [5, 4]<br/>class = no>, fillcolor="#fae6d7"] ;
443 -> 444 ;
445 [label=<contact &le; 0.894<br/>gini = 0.49<br/>samples = 7<br/>value = [3, 4]<br/>class = yes>, fillcolor="#cee6f8"] ;
444 -> 445 ;
446 [label=<poutcome &le; 0.093<br/>gini = 0.375<br/>samples = 4<br/>value = [1, 3]<br/>class = yes>, fillcolor="#7bbeee"] ;
445 -> 446 ;
447 [label=<gini = 0.444<br/>samples = 3<br/>value = [1, 2]<br/>class = yes>, fillcolor="#9ccef2"] ;
446 -> 447 ;
448 [label=<gini = 0.0<br/>samples = 1<br/>value = [0, 1]<br/>class = yes>, fillcolor="#399de5"] ;
446 -> 448 ;
449 [label=<education &le; 0.533<br/>gini = 0.444<br/>samples = 3<br/>value = [2, 1]<br/>class = no>, fillcolor="#f2c09c"] ;
445 -> 449 ;
450 [label=<gini = 0.0<br/>samples = 1<br/>value = [0, 1]<br/>class = yes>, fillcolor="#399de5"] ;
449 -> 450 ;
451 [label=<gini = 0.0<br/>samples = 2<br/>value = [2, 0]<br/>class = no>, fillcolor="#e58139"] ;
449 -> 451 ;
452 [label=<gini = 0.0<br/>samples = 2<br/>value = [2, 0]<br/>class = no>, fillcolor="#e58139"] ;
444 -> 452 ;
453 [label=<gini = 0.0<br/>samples = 2<br/>value = [0, 2]<br/>class = yes>, fillcolor="#399de5"] ;
443 -> 453 ;
454 [label=<education &le; 0.533<br/>gini = 0.444<br/>samples = 9<br/>value = [6, 3]<br/>class = no>, fillcolor="#f2c09c"] ;
442 -> 454 ;
455 [label=<gini = 0.0<br/>samples = 3<br/>value = [3, 0]<br/>class = no>, fillcolor="#e58139"] ;
454 -> 455 ;
456 [label=<marital &le; 1.585<br/>gini = 0.5<br/>samples = 6<br/>value = [3, 3]<br/>class = no>, fillcolor="#ffffff"] ;
454 -> 456 ;
457 [label=<contact &le; 0.894<br/>gini = 0.48<br/>samples = 5<br/>value = [3, 2]<br/>class = no>, fillcolor="#f6d5bd"] ;
456 -> 457 ;
458 [label=<poutcome &le; 0.093<br/>gini = 0.444<br/>samples = 3<br/>value = [1, 2]<br/>class = yes>, fillcolor="#9ccef2"] ;
457 -> 458 ;
459 [label=<gini = 0.0<br/>samples = 1<br/>value = [1, 0]<br/>class = no>, fillcolor="#e58139"] ;
458 -> 459 ;
460 [label=<gini = 0.0<br/>samples = 2<br/>value = [0, 2]<br/>class = yes>, fillcolor="#399de5"] ;
458 -> 460 ;
461 [label=<gini = 0.0<br/>samples = 2<br/>value = [2, 0]<br/>class = no>, fillcolor="#e58139"] ;
457 -> 461 ;
462 [label=<gini = 0.0<br/>samples = 1<br/>value = [0, 1]<br/>class = yes>, fillcolor="#399de5"] ;
456 -> 462 ;
463 [label=<marital &le; 0.057<br/>gini = 0.32<br/>samples = 5<br/>value = [1, 4]<br/>class = yes>, fillcolor="#6ab6ec"] ;
415 -> 463 ;
464 [label=<marital &le; -0.915<br/>gini = 0.5<br/>samples = 2<br/>value = [1, 1]<br/>class = no>, fillcolor="#ffffff"] ;
463 -> 464 ;
465 [label=<gini = 0.0<br/>samples = 1<br/>value = [0, 1]<br/>class = yes>, fillcolor="#399de5"] ;
464 -> 465 ;
466 [label=<gini = 0.0<br/>samples = 1<br/>value = [1, 0]<br/>class = no>, fillcolor="#e58139"] ;
464 -> 466 ;
467 [label=<gini = 0.0<br/>samples = 3<br/>value = [0, 3]<br/>class = yes>, fillcolor="#399de5"] ;
463 -> 467 ;
468 [label=<default &le; 0.109<br/>gini = 0.162<br/>samples = 663<br/>value = [604, 59]<br/>class = no>, fillcolor="#e88d4c"] ;
4 -> 468 ;
469 [label=<contact &le; 0.215<br/>gini = 0.118<br/>samples = 364<br/>value = [341, 23]<br/>class = no>, fillcolor="#e78946"] ;
468 -> 469 ;
470 [label=<marital &le; 1.307<br/>gini = 0.145<br/>samples = 293<br/>value = [270, 23]<br/>class = no>, fillcolor="#e78c4a"] ;
469 -> 470 ;
471 [label=<y &le; -1.122<br/>gini = 0.158<br/>samples = 266<br/>value = [243, 23]<br/>class = no>, fillcolor="#e78d4c"] ;
470 -> 471 ;
472 [label=<default &le; -1.056<br/>gini = 0.098<br/>samples = 77<br/>value = [73, 4]<br/>class = no>, fillcolor="#e68844"] ;
471 -> 472 ;
473 [label=<gini = 0.0<br/>samples = 20<br/>value = [20, 0]<br/>class = no>, fillcolor="#e58139"] ;
472 -> 473 ;
474 [label=<marital &le; 0.752<br/>gini = 0.131<br/>samples = 57<br/>value = [53, 4]<br/>class = no>, fillcolor="#e78b48"] ;
472 -> 474 ;
475 [label=<marital &le; 0.474<br/>gini = 0.169<br/>samples = 43<br/>value = [39, 4]<br/>class = no>, fillcolor="#e88e4d"] ;
474 -> 475 ;
476 [label=<education &le; -1.114<br/>gini = 0.139<br/>samples = 40<br/>value = [37, 3]<br/>class = no>, fillcolor="#e78b49"] ;
475 -> 476 ;
477 [label=<gini = 0.0<br/>samples = 6<br/>value = [6, 0]<br/>class = no>, fillcolor="#e58139"] ;
476 -> 477 ;
478 [label=<marital &le; -0.637<br/>gini = 0.161<br/>samples = 34<br/>value = [31, 3]<br/>class = no>, fillcolor="#e88d4c"] ;
476 -> 478 ;
479 [label=<loan &le; -0.101<br/>gini = 0.185<br/>samples = 29<br/>value = [26, 3]<br/>class = no>, fillcolor="#e89050"] ;
478 -> 479 ;
480 [label=<education &le; 0.533<br/>gini = 0.124<br/>samples = 15<br/>value = [14, 1]<br/>class = no>, fillcolor="#e78a47"] ;
479 -> 480 ;
481 [label=<gini = 0.0<br/>samples = 12<br/>value = [12, 0]<br/>class = no>, fillcolor="#e58139"] ;
480 -> 481 ;
482 [label=<default &le; -0.59<br/>gini = 0.444<br/>samples = 3<br/>value = [2, 1]<br/>class = no>, fillcolor="#f2c09c"] ;
480 -> 482 ;
483 [label=<gini = 0.0<br/>samples = 1<br/>value = [1, 0]<br/>class = no>, fillcolor="#e58139"] ;
482 -> 483 ;
484 [label=<gini = 0.5<br/>samples = 2<br/>value = [1, 1]<br/>class = no>, fillcolor="#ffffff"] ;
482 -> 484 ;
485 [label=<marital &le; -0.915<br/>gini = 0.245<br/>samples = 14<br/>value = [12, 2]<br/>class = no>, fillcolor="#e9965a"] ;
479 -> 485 ;
486 [label=<gini = 0.0<br/>samples = 6<br/>value = [6, 0]<br/>class = no>, fillcolor="#e58139"] ;
485 -> 486 ;
487 [label=<poutcome &le; 0.956<br/>gini = 0.375<br/>samples = 8<br/>value = [6, 2]<br/>class = no>, fillcolor="#eeab7b"] ;
485 -> 487 ;
488 [label=<education &le; 0.533<br/>gini = 0.48<br/>samples = 5<br/>value = [3, 2]<br/>class = no>, fillcolor="#f6d5bd"] ;
487 -> 488 ;
489 [label=<default &le; -0.59<br/>gini = 0.444<br/>samples = 3<br/>value = [1, 2]<br/>class = yes>, fillcolor="#9ccef2"] ;
488 -> 489 ;
490 [label=<gini = 0.0<br/>samples = 1<br/>value = [0, 1]<br/>class = yes>, fillcolor="#399de5"] ;
489 -> 490 ;
491 [label=<gini = 0.5<br/>samples = 2<br/>value = [1, 1]<br/>class = no>, fillcolor="#ffffff"] ;
489 -> 491 ;
492 [label=<gini = 0.0<br/>samples = 2<br/>value = [2, 0]<br/>class = no>, fillcolor="#e58139"] ;
488 -> 492 ;
493 [label=<gini = 0.0<br/>samples = 3<br/>value = [3, 0]<br/>class = no>, fillcolor="#e58139"] ;
487 -> 493 ;
494 [label=<gini = 0.0<br/>samples = 5<br/>value = [5, 0]<br/>class = no>, fillcolor="#e58139"] ;
478 -> 494 ;
495 [label=<loan &le; -0.101<br/>gini = 0.444<br/>samples = 3<br/>value = [2, 1]<br/>class = no>, fillcolor="#f2c09c"] ;
475 -> 495 ;
496 [label=<gini = 0.0<br/>samples = 1<br/>value = [1, 0]<br/>class = no>, fillcolor="#e58139"] ;
495 -> 496 ;
497 [label=<poutcome &le; 0.956<br/>gini = 0.5<br/>samples = 2<br/>value = [1, 1]<br/>class = no>, fillcolor="#ffffff"] ;
495 -> 497 ;
498 [label=<gini = 0.0<br/>samples = 1<br/>value = [0, 1]<br/>class = yes>, fillcolor="#399de5"] ;
497 -> 498 ;
499 [label=<gini = 0.0<br/>samples = 1<br/>value = [1, 0]<br/>class = no>, fillcolor="#e58139"] ;
497 -> 499 ;
500 [label=<gini = 0.0<br/>samples = 14<br/>value = [14, 0]<br/>class = no>, fillcolor="#e58139"] ;
474 -> 500 ;
501 [label=<poutcome &le; 0.956<br/>gini = 0.181<br/>samples = 189<br/>value = [170, 19]<br/>class = no>, fillcolor="#e88f4f"] ;
471 -> 501 ;
502 [label=<education &le; -1.114<br/>gini = 0.215<br/>samples = 114<br/>value = [100, 14]<br/>class = no>, fillcolor="#e99355"] ;
501 -> 502 ;
503 [label=<default &le; -0.59<br/>gini = 0.42<br/>samples = 10<br/>value = [7, 3]<br/>class = no>, fillcolor="#f0b78e"] ;
502 -> 503 ;
504 [label=<gini = 0.0<br/>samples = 5<br/>value = [5, 0]<br/>class = no>, fillcolor="#e58139"] ;
503 -> 504 ;
505 [label=<marital &le; -0.915<br/>gini = 0.48<br/>samples = 5<br/>value = [2, 3]<br/>class = yes>, fillcolor="#bddef6"] ;
503 -> 505 ;
506 [label=<gini = 0.0<br/>samples = 1<br/>value = [1, 0]<br/>class = no>, fillcolor="#e58139"] ;
505 -> 506 ;
507 [label=<marital &le; 0.057<br/>gini = 0.375<br/>samples = 4<br/>value = [1, 3]<br/>class = yes>, fillcolor="#7bbeee"] ;
505 -> 507 ;
508 [label=<gini = 0.0<br/>samples = 1<br/>value = [0, 1]<br/>class = yes>, fillcolor="#399de5"] ;
507 -> 508 ;
509 [label=<loan &le; -0.101<br/>gini = 0.444<br/>samples = 3<br/>value = [1, 2]<br/>class = yes>, fillcolor="#9ccef2"] ;
507 -> 509 ;
510 [label=<gini = 0.5<br/>samples = 2<br/>value = [1, 1]<br/>class = no>, fillcolor="#ffffff"] ;
509 -> 510 ;
511 [label=<gini = 0.0<br/>samples = 1<br/>value = [0, 1]<br/>class = yes>, fillcolor="#399de5"] ;
509 -> 511 ;
512 [label=<marital &le; -0.637<br/>gini = 0.189<br/>samples = 104<br/>value = [93, 11]<br/>class = no>, fillcolor="#e89050"] ;
502 -> 512 ;
513 [label=<default &le; -1.521<br/>gini = 0.153<br/>samples = 72<br/>value = [66, 6]<br/>class = no>, fillcolor="#e78c4b"] ;
512 -> 513 ;
514 [label=<gini = 0.0<br/>samples = 15<br/>value = [15, 0]<br/>class = no>, fillcolor="#e58139"] ;
513 -> 514 ;
515 [label=<education &le; 0.533<br/>gini = 0.188<br/>samples = 57<br/>value = [51, 6]<br/>class = no>, fillcolor="#e89050"] ;
513 -> 515 ;
516 [label=<default &le; -1.056<br/>gini = 0.157<br/>samples = 35<br/>value = [32, 3]<br/>class = no>, fillcolor="#e78d4c"] ;
515 -> 516 ;
517 [label=<loan &le; -0.101<br/>gini = 0.245<br/>samples = 7<br/>value = [6, 1]<br/>class = no>, fillcolor="#e9965a"] ;
516 -> 517 ;
518 [label=<gini = 0.0<br/>samples = 3<br/>value = [3, 0]<br/>class = no>, fillcolor="#e58139"] ;
517 -> 518 ;
519 [label=<gini = 0.375<br/>samples = 4<br/>value = [3, 1]<br/>class = no>, fillcolor="#eeab7b"] ;
517 -> 519 ;
520 [label=<marital &le; -0.915<br/>gini = 0.133<br/>samples = 28<br/>value = [26, 2]<br/>class = no>, fillcolor="#e78b48"] ;
516 -> 520 ;
521 [label=<loan &le; -0.101<br/>gini = 0.165<br/>samples = 11<br/>value = [10, 1]<br/>class = no>, fillcolor="#e88e4d"] ;
520 -> 521 ;
522 [label=<gini = 0.0<br/>samples = 6<br/>value = [6, 0]<br/>class = no>, fillcolor="#e58139"] ;
521 -> 522 ;
523 [label=<gini = 0.32<br/>samples = 5<br/>value = [4, 1]<br/>class = no>, fillcolor="#eca06a"] ;
521 -> 523 ;
524 [label=<loan &le; -0.101<br/>gini = 0.111<br/>samples = 17<br/>value = [16, 1]<br/>class = no>, fillcolor="#e78945"] ;
520 -> 524 ;
525 [label=<gini = 0.32<br/>samples = 5<br/>value = [4, 1]<br/>class = no>, fillcolor="#eca06a"] ;
524 -> 525 ;
526 [label=<gini = 0.0<br/>samples = 12<br/>value = [12, 0]<br/>class = no>, fillcolor="#e58139"] ;
524 -> 526 ;
527 [label=<default &le; -1.056<br/>gini = 0.236<br/>samples = 22<br/>value = [19, 3]<br/>class = no>, fillcolor="#e99558"] ;
515 -> 527 ;
528 [label=<gini = 0.0<br/>samples = 3<br/>value = [3, 0]<br/>class = no>, fillcolor="#e58139"] ;
527 -> 528 ;
529 [label=<marital &le; -0.915<br/>gini = 0.266<br/>samples = 19<br/>value = [16, 3]<br/>class = no>, fillcolor="#ea995e"] ;
527 -> 529 ;
530 [label=<default &le; -0.59<br/>gini = 0.219<br/>samples = 8<br/>value = [7, 1]<br/>class = no>, fillcolor="#e99355"] ;
529 -> 530 ;
531 [label=<loan &le; -0.101<br/>gini = 0.5<br/>samples = 2<br/>value = [1, 1]<br/>class = no>, fillcolor="#ffffff"] ;
530 -> 531 ;
532 [label=<gini = 0.0<br/>samples = 1<br/>value = [1, 0]<br/>class = no>, fillcolor="#e58139"] ;
531 -> 532 ;
533 [label=<gini = 0.0<br/>samples = 1<br/>value = [0, 1]<br/>class = yes>, fillcolor="#399de5"] ;
531 -> 533 ;
534 [label=<gini = 0.0<br/>samples = 6<br/>value = [6, 0]<br/>class = no>, fillcolor="#e58139"] ;
530 -> 534 ;
535 [label=<default &le; -0.59<br/>gini = 0.298<br/>samples = 11<br/>value = [9, 2]<br/>class = no>, fillcolor="#eb9d65"] ;
529 -> 535 ;
536 [label=<gini = 0.0<br/>samples = 5<br/>value = [5, 0]<br/>class = no>, fillcolor="#e58139"] ;
535 -> 536 ;
537 [label=<loan &le; -0.101<br/>gini = 0.444<br/>samples = 6<br/>value = [4, 2]<br/>class = no>, fillcolor="#f2c09c"] ;
535 -> 537 ;
538 [label=<gini = 0.48<br/>samples = 5<br/>value = [3, 2]<br/>class = no>, fillcolor="#f6d5bd"] ;
537 -> 538 ;
539 [label=<gini = 0.0<br/>samples = 1<br/>value = [1, 0]<br/>class = no>, fillcolor="#e58139"] ;
537 -> 539 ;
540 [label=<default &le; -1.521<br/>gini = 0.264<br/>samples = 32<br/>value = [27, 5]<br/>class = no>, fillcolor="#ea985e"] ;
512 -> 540 ;
541 [label=<gini = 0.0<br/>samples = 2<br/>value = [0, 2]<br/>class = yes>, fillcolor="#399de5"] ;
540 -> 541 ;
542 [label=<education &le; 0.533<br/>gini = 0.18<br/>samples = 30<br/>value = [27, 3]<br/>class = no>, fillcolor="#e88f4f"] ;
540 -> 542 ;
543 [label=<loan &le; -0.101<br/>gini = 0.236<br/>samples = 22<br/>value = [19, 3]<br/>class = no>, fillcolor="#e99558"] ;
542 -> 543 ;
544 [label=<marital &le; 0.752<br/>gini = 0.142<br/>samples = 13<br/>value = [12, 1]<br/>class = no>, fillcolor="#e78c49"] ;
543 -> 544 ;
545 [label=<marital &le; 0.474<br/>gini = 0.278<br/>samples = 6<br/>value = [5, 1]<br/>class = no>, fillcolor="#ea9a61"] ;
544 -> 545 ;
546 [label=<gini = 0.0<br/>samples = 5<br/>value = [5, 0]<br/>class = no>, fillcolor="#e58139"] ;
545 -> 546 ;
547 [label=<gini = 0.0<br/>samples = 1<br/>value = [0, 1]<br/>class = yes>, fillcolor="#399de5"] ;
545 -> 547 ;
548 [label=<gini = 0.0<br/>samples = 7<br/>value = [7, 0]<br/>class = no>, fillcolor="#e58139"] ;
544 -> 548 ;
549 [label=<default &le; -0.59<br/>gini = 0.346<br/>samples = 9<br/>value = [7, 2]<br/>class = no>, fillcolor="#eca572"] ;
543 -> 549 ;
550 [label=<marital &le; 0.335<br/>gini = 0.5<br/>samples = 2<br/>value = [1, 1]<br/>class = no>, fillcolor="#ffffff"] ;
549 -> 550 ;
551 [label=<gini = 0.0<br/>samples = 1<br/>value = [0, 1]<br/>class = yes>, fillcolor="#399de5"] ;
550 -> 551 ;
552 [label=<gini = 0.0<br/>samples = 1<br/>value = [1, 0]<br/>class = no>, fillcolor="#e58139"] ;
550 -> 552 ;
553 [label=<marital &le; 0.474<br/>gini = 0.245<br/>samples = 7<br/>value = [6, 1]<br/>class = no>, fillcolor="#e9965a"] ;
549 -> 553 ;
554 [label=<gini = 0.0<br/>samples = 3<br/>value = [3, 0]<br/>class = no>, fillcolor="#e58139"] ;
553 -> 554 ;
555 [label=<gini = 0.375<br/>samples = 4<br/>value = [3, 1]<br/>class = no>, fillcolor="#eeab7b"] ;
553 -> 555 ;
556 [label=<gini = 0.0<br/>samples = 8<br/>value = [8, 0]<br/>class = no>, fillcolor="#e58139"] ;
542 -> 556 ;
557 [label=<marital &le; 1.029<br/>gini = 0.124<br/>samples = 75<br/>value = [70, 5]<br/>class = no>, fillcolor="#e78a47"] ;
501 -> 557 ;
558 [label=<marital &le; -0.082<br/>gini = 0.104<br/>samples = 73<br/>value = [69, 4]<br/>class = no>, fillcolor="#e78844"] ;
557 -> 558 ;
559 [label=<marital &le; -0.359<br/>gini = 0.147<br/>samples = 50<br/>value = [46, 4]<br/>class = no>, fillcolor="#e78c4a"] ;
558 -> 559 ;
560 [label=<marital &le; -0.915<br/>gini = 0.117<br/>samples = 48<br/>value = [45, 3]<br/>class = no>, fillcolor="#e78946"] ;
559 -> 560 ;
561 [label=<loan &le; -0.101<br/>gini = 0.188<br/>samples = 19<br/>value = [17, 2]<br/>class = no>, fillcolor="#e89050"] ;
560 -> 561 ;
562 [label=<gini = 0.0<br/>samples = 8<br/>value = [8, 0]<br/>class = no>, fillcolor="#e58139"] ;
561 -> 562 ;
563 [label=<education &le; -1.114<br/>gini = 0.298<br/>samples = 11<br/>value = [9, 2]<br/>class = no>, fillcolor="#eb9d65"] ;
561 -> 563 ;
564 [label=<gini = 0.444<br/>samples = 3<br/>value = [2, 1]<br/>class = no>, fillcolor="#f2c09c"] ;
563 -> 564 ;
565 [label=<education &le; 0.533<br/>gini = 0.219<br/>samples = 8<br/>value = [7, 1]<br/>class = no>, fillcolor="#e99355"] ;
563 -> 565 ;
566 [label=<default &le; -0.59<br/>gini = 0.245<br/>samples = 7<br/>value = [6, 1]<br/>class = no>, fillcolor="#e9965a"] ;
565 -> 566 ;
567 [label=<gini = 0.0<br/>samples = 1<br/>value = [1, 0]<br/>class = no>, fillcolor="#e58139"] ;
566 -> 567 ;
568 [label=<gini = 0.278<br/>samples = 6<br/>value = [5, 1]<br/>class = no>, fillcolor="#ea9a61"] ;
566 -> 568 ;
569 [label=<gini = 0.0<br/>samples = 1<br/>value = [1, 0]<br/>class = no>, fillcolor="#e58139"] ;
565 -> 569 ;
570 [label=<education &le; 0.533<br/>gini = 0.067<br/>samples = 29<br/>value = [28, 1]<br/>class = no>, fillcolor="#e68640"] ;
560 -> 570 ;
571 [label=<gini = 0.0<br/>samples = 23<br/>value = [23, 0]<br/>class = no>, fillcolor="#e58139"] ;
570 -> 571 ;
572 [label=<default &le; -1.056<br/>gini = 0.278<br/>samples = 6<br/>value = [5, 1]<br/>class = no>, fillcolor="#ea9a61"] ;
570 -> 572 ;
573 [label=<default &le; -1.521<br/>gini = 0.5<br/>samples = 2<br/>value = [1, 1]<br/>class = no>, fillcolor="#ffffff"] ;
572 -> 573 ;
574 [label=<gini = 0.0<br/>samples = 1<br/>value = [1, 0]<br/>class = no>, fillcolor="#e58139"] ;
573 -> 574 ;
575 [label=<gini = 0.0<br/>samples = 1<br/>value = [0, 1]<br/>class = yes>, fillcolor="#399de5"] ;
573 -> 575 ;
576 [label=<gini = 0.0<br/>samples = 4<br/>value = [4, 0]<br/>class = no>, fillcolor="#e58139"] ;
572 -> 576 ;
577 [label=<default &le; -1.288<br/>gini = 0.5<br/>samples = 2<br/>value = [1, 1]<br/>class = no>, fillcolor="#ffffff"] ;
559 -> 577 ;
578 [label=<gini = 0.0<br/>samples = 1<br/>value = [0, 1]<br/>class = yes>, fillcolor="#399de5"] ;
577 -> 578 ;
579 [label=<gini = 0.0<br/>samples = 1<br/>value = [1, 0]<br/>class = no>, fillcolor="#e58139"] ;
577 -> 579 ;
580 [label=<gini = 0.0<br/>samples = 23<br/>value = [23, 0]<br/>class = no>, fillcolor="#e58139"] ;
558 -> 580 ;
581 [label=<gini = 0.5<br/>samples = 2<br/>value = [1, 1]<br/>class = no>, fillcolor="#ffffff"] ;
557 -> 581 ;
582 [label=<gini = 0.0<br/>samples = 27<br/>value = [27, 0]<br/>class = no>, fillcolor="#e58139"] ;
470 -> 582 ;
583 [label=<gini = 0.0<br/>samples = 71<br/>value = [71, 0]<br/>class = no>, fillcolor="#e58139"] ;
469 -> 583 ;
584 [label=<poutcome &le; 0.956<br/>gini = 0.212<br/>samples = 299<br/>value = [263, 36]<br/>class = no>, fillcolor="#e99254"] ;
468 -> 584 ;
585 [label=<marital &le; -0.915<br/>gini = 0.255<br/>samples = 147<br/>value = [125, 22]<br/>class = no>, fillcolor="#ea975c"] ;
584 -> 585 ;
586 [label=<education &le; 0.533<br/>gini = 0.343<br/>samples = 50<br/>value = [39, 11]<br/>class = no>, fillcolor="#eca571"] ;
585 -> 586 ;
587 [label=<default &le; 0.807<br/>gini = 0.423<br/>samples = 23<br/>value = [16, 7]<br/>class = no>, fillcolor="#f0b890"] ;
586 -> 587 ;
588 [label=<gini = 0.0<br/>samples = 2<br/>value = [2, 0]<br/>class = no>, fillcolor="#e58139"] ;
587 -> 588 ;
589 [label=<contact &le; 0.894<br/>gini = 0.444<br/>samples = 21<br/>value = [14, 7]<br/>class = no>, fillcolor="#f2c09c"] ;
587 -> 589 ;
590 [label=<y &le; -1.122<br/>gini = 0.455<br/>samples = 20<br/>value = [13, 7]<br/>class = no>, fillcolor="#f3c5a4"] ;
589 -> 590 ;
591 [label=<loan &le; -0.101<br/>gini = 0.375<br/>samples = 4<br/>value = [3, 1]<br/>class = no>, fillcolor="#eeab7b"] ;
590 -> 591 ;
592 [label=<gini = 0.0<br/>samples = 1<br/>value = [1, 0]<br/>class = no>, fillcolor="#e58139"] ;
591 -> 592 ;
593 [label=<gini = 0.444<br/>samples = 3<br/>value = [2, 1]<br/>class = no>, fillcolor="#f2c09c"] ;
591 -> 593 ;
594 [label=<education &le; -1.114<br/>gini = 0.469<br/>samples = 16<br/>value = [10, 6]<br/>class = no>, fillcolor="#f5cdb0"] ;
590 -> 594 ;
595 [label=<loan &le; -0.101<br/>gini = 0.5<br/>samples = 4<br/>value = [2, 2]<br/>class = no>, fillcolor="#ffffff"] ;
594 -> 595 ;
596 [label=<gini = 0.5<br/>samples = 2<br/>value = [1, 1]<br/>class = no>, fillcolor="#ffffff"] ;
595 -> 596 ;
597 [label=<gini = 0.5<br/>samples = 2<br/>value = [1, 1]<br/>class = no>, fillcolor="#ffffff"] ;
595 -> 597 ;
598 [label=<loan &le; -0.101<br/>gini = 0.444<br/>samples = 12<br/>value = [8, 4]<br/>class = no>, fillcolor="#f2c09c"] ;
594 -> 598 ;
599 [label=<gini = 0.375<br/>samples = 4<br/>value = [3, 1]<br/>class = no>, fillcolor="#eeab7b"] ;
598 -> 599 ;
600 [label=<gini = 0.469<br/>samples = 8<br/>value = [5, 3]<br/>class = no>, fillcolor="#f5cdb0"] ;
598 -> 600 ;
601 [label=<gini = 0.0<br/>samples = 1<br/>value = [1, 0]<br/>class = no>, fillcolor="#e58139"] ;
589 -> 601 ;
602 [label=<default &le; 0.807<br/>gini = 0.252<br/>samples = 27<br/>value = [23, 4]<br/>class = no>, fillcolor="#ea975b"] ;
586 -> 602 ;
603 [label=<loan &le; -0.101<br/>gini = 0.5<br/>samples = 4<br/>value = [2, 2]<br/>class = no>, fillcolor="#ffffff"] ;
602 -> 603 ;
604 [label=<gini = 0.0<br/>samples = 1<br/>value = [1, 0]<br/>class = no>, fillcolor="#e58139"] ;
603 -> 604 ;
605 [label=<y &le; -1.122<br/>gini = 0.444<br/>samples = 3<br/>value = [1, 2]<br/>class = yes>, fillcolor="#9ccef2"] ;
603 -> 605 ;
606 [label=<gini = 0.0<br/>samples = 1<br/>value = [1, 0]<br/>class = no>, fillcolor="#e58139"] ;
605 -> 606 ;
607 [label=<gini = 0.0<br/>samples = 2<br/>value = [0, 2]<br/>class = yes>, fillcolor="#399de5"] ;
605 -> 607 ;
608 [label=<y &le; -1.122<br/>gini = 0.159<br/>samples = 23<br/>value = [21, 2]<br/>class = no>, fillcolor="#e78d4c"] ;
602 -> 608 ;
609 [label=<gini = 0.0<br/>samples = 6<br/>value = [6, 0]<br/>class = no>, fillcolor="#e58139"] ;
608 -> 609 ;
610 [label=<contact &le; 0.894<br/>gini = 0.208<br/>samples = 17<br/>value = [15, 2]<br/>class = no>, fillcolor="#e89253"] ;
608 -> 610 ;
611 [label=<default &le; 1.273<br/>gini = 0.231<br/>samples = 15<br/>value = [13, 2]<br/>class = no>, fillcolor="#e99457"] ;
610 -> 611 ;
612 [label=<loan &le; -0.101<br/>gini = 0.245<br/>samples = 14<br/>value = [12, 2]<br/>class = no>, fillcolor="#e9965a"] ;
611 -> 612 ;
613 [label=<gini = 0.245<br/>samples = 7<br/>value = [6, 1]<br/>class = no>, fillcolor="#e9965a"] ;
612 -> 613 ;
614 [label=<gini = 0.245<br/>samples = 7<br/>value = [6, 1]<br/>class = no>, fillcolor="#e9965a"] ;
612 -> 614 ;
615 [label=<gini = 0.0<br/>samples = 1<br/>value = [1, 0]<br/>class = no>, fillcolor="#e58139"] ;
611 -> 615 ;
616 [label=<gini = 0.0<br/>samples = 2<br/>value = [2, 0]<br/>class = no>, fillcolor="#e58139"] ;
610 -> 616 ;
617 [label=<default &le; 0.807<br/>gini = 0.201<br/>samples = 97<br/>value = [86, 11]<br/>class = no>, fillcolor="#e89152"] ;
585 -> 617 ;
618 [label=<contact &le; 1.573<br/>gini = 0.307<br/>samples = 37<br/>value = [30, 7]<br/>class = no>, fillcolor="#eb9e67"] ;
617 -> 618 ;
619 [label=<loan &le; 0.408<br/>gini = 0.334<br/>samples = 33<br/>value = [26, 7]<br/>class = no>, fillcolor="#eca36e"] ;
618 -> 619 ;
620 [label=<marital &le; 0.196<br/>gini = 0.391<br/>samples = 15<br/>value = [11, 4]<br/>class = no>, fillcolor="#eeaf81"] ;
619 -> 620 ;
621 [label=<education &le; 0.533<br/>gini = 0.444<br/>samples = 3<br/>value = [1, 2]<br/>class = yes>, fillcolor="#9ccef2"] ;
620 -> 621 ;
622 [label=<gini = 0.0<br/>samples = 2<br/>value = [0, 2]<br/>class = yes>, fillcolor="#399de5"] ;
621 -> 622 ;
623 [label=<gini = 0.0<br/>samples = 1<br/>value = [1, 0]<br/>class = no>, fillcolor="#e58139"] ;
621 -> 623 ;
624 [label=<y &le; -1.122<br/>gini = 0.278<br/>samples = 12<br/>value = [10, 2]<br/>class = no>, fillcolor="#ea9a61"] ;
620 -> 624 ;
625 [label=<gini = 0.0<br/>samples = 3<br/>value = [3, 0]<br/>class = no>, fillcolor="#e58139"] ;
624 -> 625 ;
626 [label=<education &le; -1.114<br/>gini = 0.346<br/>samples = 9<br/>value = [7, 2]<br/>class = no>, fillcolor="#eca572"] ;
624 -> 626 ;
627 [label=<gini = 0.0<br/>samples = 2<br/>value = [2, 0]<br/>class = no>, fillcolor="#e58139"] ;
626 -> 627 ;
628 [label=<marital &le; 1.723<br/>gini = 0.408<br/>samples = 7<br/>value = [5, 2]<br/>class = no>, fillcolor="#efb388"] ;
626 -> 628 ;
629 [label=<education &le; 0.533<br/>gini = 0.444<br/>samples = 6<br/>value = [4, 2]<br/>class = no>, fillcolor="#f2c09c"] ;
628 -> 629 ;
630 [label=<contact &le; 0.215<br/>gini = 0.5<br/>samples = 2<br/>value = [1, 1]<br/>class = no>, fillcolor="#ffffff"] ;
629 -> 630 ;
631 [label=<gini = 0.0<br/>samples = 1<br/>value = [0, 1]<br/>class = yes>, fillcolor="#399de5"] ;
630 -> 631 ;
632 [label=<gini = 0.0<br/>samples = 1<br/>value = [1, 0]<br/>class = no>, fillcolor="#e58139"] ;
630 -> 632 ;
633 [label=<loan &le; -0.61<br/>gini = 0.375<br/>samples = 4<br/>value = [3, 1]<br/>class = no>, fillcolor="#eeab7b"] ;
629 -> 633 ;
634 [label=<gini = 0.0<br/>samples = 2<br/>value = [2, 0]<br/>class = no>, fillcolor="#e58139"] ;
633 -> 634 ;
635 [label=<gini = 0.5<br/>samples = 2<br/>value = [1, 1]<br/>class = no>, fillcolor="#ffffff"] ;
633 -> 635 ;
636 [label=<gini = 0.0<br/>samples = 1<br/>value = [1, 0]<br/>class = no>, fillcolor="#e58139"] ;
628 -> 636 ;
637 [label=<education &le; -1.114<br/>gini = 0.278<br/>samples = 18<br/>value = [15, 3]<br/>class = no>, fillcolor="#ea9a61"] ;
619 -> 637 ;
638 [label=<gini = 0.5<br/>samples = 2<br/>value = [1, 1]<br/>class = no>, fillcolor="#ffffff"] ;
637 -> 638 ;
639 [label=<y &le; -1.122<br/>gini = 0.219<br/>samples = 16<br/>value = [14, 2]<br/>class = no>, fillcolor="#e99355"] ;
637 -> 639 ;
640 [label=<education &le; 0.533<br/>gini = 0.408<br/>samples = 7<br/>value = [5, 2]<br/>class = no>, fillcolor="#efb388"] ;
639 -> 640 ;
641 [label=<gini = 0.0<br/>samples = 2<br/>value = [2, 0]<br/>class = no>, fillcolor="#e58139"] ;
640 -> 641 ;
642 [label=<marital &le; 1.029<br/>gini = 0.48<br/>samples = 5<br/>value = [3, 2]<br/>class = no>, fillcolor="#f6d5bd"] ;
640 -> 642 ;
643 [label=<gini = 0.0<br/>samples = 1<br/>value = [0, 1]<br/>class = yes>, fillcolor="#399de5"] ;
642 -> 643 ;
644 [label=<gini = 0.375<br/>samples = 4<br/>value = [3, 1]<br/>class = no>, fillcolor="#eeab7b"] ;
642 -> 644 ;
645 [label=<gini = 0.0<br/>samples = 9<br/>value = [9, 0]<br/>class = no>, fillcolor="#e58139"] ;
639 -> 645 ;
646 [label=<gini = 0.0<br/>samples = 4<br/>value = [4, 0]<br/>class = no>, fillcolor="#e58139"] ;
618 -> 646 ;
647 [label=<y &le; -1.122<br/>gini = 0.124<br/>samples = 60<br/>value = [56, 4]<br/>class = no>, fillcolor="#e78a47"] ;
617 -> 647 ;
648 [label=<marital &le; 1.029<br/>gini = 0.219<br/>samples = 16<br/>value = [14, 2]<br/>class = no>, fillcolor="#e99355"] ;
647 -> 648 ;
649 [label=<loan &le; -0.101<br/>gini = 0.133<br/>samples = 14<br/>value = [13, 1]<br/>class = no>, fillcolor="#e78b48"] ;
648 -> 649 ;
650 [label=<marital &le; 0.335<br/>gini = 0.219<br/>samples = 8<br/>value = [7, 1]<br/>class = no>, fillcolor="#e99355"] ;
649 -> 650 ;
651 [label=<education &le; 0.533<br/>gini = 0.32<br/>samples = 5<br/>value = [4, 1]<br/>class = no>, fillcolor="#eca06a"] ;
650 -> 651 ;
652 [label=<gini = 0.444<br/>samples = 3<br/>value = [2, 1]<br/>class = no>, fillcolor="#f2c09c"] ;
651 -> 652 ;
653 [label=<gini = 0.0<br/>samples = 2<br/>value = [2, 0]<br/>class = no>, fillcolor="#e58139"] ;
651 -> 653 ;
654 [label=<gini = 0.0<br/>samples = 3<br/>value = [3, 0]<br/>class = no>, fillcolor="#e58139"] ;
650 -> 654 ;
655 [label=<gini = 0.0<br/>samples = 6<br/>value = [6, 0]<br/>class = no>, fillcolor="#e58139"] ;
649 -> 655 ;
656 [label=<marital &le; 1.307<br/>gini = 0.5<br/>samples = 2<br/>value = [1, 1]<br/>class = no>, fillcolor="#ffffff"] ;
648 -> 656 ;
657 [label=<gini = 0.0<br/>samples = 1<br/>value = [0, 1]<br/>class = yes>, fillcolor="#399de5"] ;
656 -> 657 ;
658 [label=<gini = 0.0<br/>samples = 1<br/>value = [1, 0]<br/>class = no>, fillcolor="#e58139"] ;
656 -> 658 ;
659 [label=<loan &le; -0.101<br/>gini = 0.087<br/>samples = 44<br/>value = [42, 2]<br/>class = no>, fillcolor="#e68742"] ;
647 -> 659 ;
660 [label=<gini = 0.0<br/>samples = 8<br/>value = [8, 0]<br/>class = no>, fillcolor="#e58139"] ;
659 -> 660 ;
661 [label=<education &le; 0.533<br/>gini = 0.105<br/>samples = 36<br/>value = [34, 2]<br/>class = no>, fillcolor="#e78845"] ;
659 -> 661 ;
662 [label=<marital &le; 0.752<br/>gini = 0.074<br/>samples = 26<br/>value = [25, 1]<br/>class = no>, fillcolor="#e68641"] ;
661 -> 662 ;
663 [label=<marital &le; -0.082<br/>gini = 0.111<br/>samples = 17<br/>value = [16, 1]<br/>class = no>, fillcolor="#e78945"] ;
662 -> 663 ;
664 [label=<gini = 0.0<br/>samples = 4<br/>value = [4, 0]<br/>class = no>, fillcolor="#e58139"] ;
663 -> 664 ;
665 [label=<education &le; -1.114<br/>gini = 0.142<br/>samples = 13<br/>value = [12, 1]<br/>class = no>, fillcolor="#e78c49"] ;
663 -> 665 ;
666 [label=<gini = 0.0<br/>samples = 2<br/>value = [2, 0]<br/>class = no>, fillcolor="#e58139"] ;
665 -> 666 ;
667 [label=<contact &le; 0.894<br/>gini = 0.165<br/>samples = 11<br/>value = [10, 1]<br/>class = no>, fillcolor="#e88e4d"] ;
665 -> 667 ;
668 [label=<gini = 0.18<br/>samples = 10<br/>value = [9, 1]<br/>class = no>, fillcolor="#e88f4f"] ;
667 -> 668 ;
669 [label=<gini = 0.0<br/>samples = 1<br/>value = [1, 0]<br/>class = no>, fillcolor="#e58139"] ;
667 -> 669 ;
670 [label=<gini = 0.0<br/>samples = 9<br/>value = [9, 0]<br/>class = no>, fillcolor="#e58139"] ;
662 -> 670 ;
671 [label=<marital &le; 1.168<br/>gini = 0.18<br/>samples = 10<br/>value = [9, 1]<br/>class = no>, fillcolor="#e88f4f"] ;
661 -> 671 ;
672 [label=<gini = 0.0<br/>samples = 5<br/>value = [5, 0]<br/>class = no>, fillcolor="#e58139"] ;
671 -> 672 ;
673 [label=<marital &le; 1.585<br/>gini = 0.32<br/>samples = 5<br/>value = [4, 1]<br/>class = no>, fillcolor="#eca06a"] ;
671 -> 673 ;
674 [label=<gini = 0.444<br/>samples = 3<br/>value = [2, 1]<br/>class = no>, fillcolor="#f2c09c"] ;
673 -> 674 ;
675 [label=<gini = 0.0<br/>samples = 2<br/>value = [2, 0]<br/>class = no>, fillcolor="#e58139"] ;
673 -> 675 ;
676 [label=<marital &le; -0.637<br/>gini = 0.167<br/>samples = 152<br/>value = [138, 14]<br/>class = no>, fillcolor="#e88e4d"] ;
584 -> 676 ;
677 [label=<gini = 0.0<br/>samples = 46<br/>value = [46, 0]<br/>class = no>, fillcolor="#e58139"] ;
676 -> 677 ;
678 [label=<marital &le; -0.082<br/>gini = 0.229<br/>samples = 106<br/>value = [92, 14]<br/>class = no>, fillcolor="#e99457"] ;
676 -> 678 ;
679 [label=<education &le; -1.114<br/>gini = 0.401<br/>samples = 18<br/>value = [13, 5]<br/>class = no>, fillcolor="#efb185"] ;
678 -> 679 ;
680 [label=<marital &le; -0.359<br/>gini = 0.444<br/>samples = 3<br/>value = [1, 2]<br/>class = yes>, fillcolor="#9ccef2"] ;
679 -> 680 ;
681 [label=<gini = 0.0<br/>samples = 1<br/>value = [1, 0]<br/>class = no>, fillcolor="#e58139"] ;
680 -> 681 ;
682 [label=<gini = 0.0<br/>samples = 2<br/>value = [0, 2]<br/>class = yes>, fillcolor="#399de5"] ;
680 -> 682 ;
683 [label=<contact &le; 0.894<br/>gini = 0.32<br/>samples = 15<br/>value = [12, 3]<br/>class = no>, fillcolor="#eca06a"] ;
679 -> 683 ;
684 [label=<default &le; 0.807<br/>gini = 0.375<br/>samples = 12<br/>value = [9, 3]<br/>class = no>, fillcolor="#eeab7b"] ;
683 -> 684 ;
685 [label=<gini = 0.0<br/>samples = 1<br/>value = [0, 1]<br/>class = yes>, fillcolor="#399de5"] ;
684 -> 685 ;
686 [label=<education &le; 0.533<br/>gini = 0.298<br/>samples = 11<br/>value = [9, 2]<br/>class = no>, fillcolor="#eb9d65"] ;
684 -> 686 ;
687 [label=<loan &le; -0.101<br/>gini = 0.198<br/>samples = 9<br/>value = [8, 1]<br/>class = no>, fillcolor="#e89152"] ;
686 -> 687 ;
688 [label=<gini = 0.0<br/>samples = 3<br/>value = [3, 0]<br/>class = no>, fillcolor="#e58139"] ;
687 -> 688 ;
689 [label=<default &le; 1.273<br/>gini = 0.278<br/>samples = 6<br/>value = [5, 1]<br/>class = no>, fillcolor="#ea9a61"] ;
687 -> 689 ;
690 [label=<y &le; -1.122<br/>gini = 0.32<br/>samples = 5<br/>value = [4, 1]<br/>class = no>, fillcolor="#eca06a"] ;
689 -> 690 ;
691 [label=<gini = 0.0<br/>samples = 1<br/>value = [1, 0]<br/>class = no>, fillcolor="#e58139"] ;
690 -> 691 ;
692 [label=<gini = 0.375<br/>samples = 4<br/>value = [3, 1]<br/>class = no>, fillcolor="#eeab7b"] ;
690 -> 692 ;
693 [label=<gini = 0.0<br/>samples = 1<br/>value = [1, 0]<br/>class = no>, fillcolor="#e58139"] ;
689 -> 693 ;
694 [label=<y &le; -1.122<br/>gini = 0.5<br/>samples = 2<br/>value = [1, 1]<br/>class = no>, fillcolor="#ffffff"] ;
686 -> 694 ;
695 [label=<gini = 0.0<br/>samples = 1<br/>value = [0, 1]<br/>class = yes>, fillcolor="#399de5"] ;
694 -> 695 ;
696 [label=<gini = 0.0<br/>samples = 1<br/>value = [1, 0]<br/>class = no>, fillcolor="#e58139"] ;
694 -> 696 ;
697 [label=<gini = 0.0<br/>samples = 3<br/>value = [3, 0]<br/>class = no>, fillcolor="#e58139"] ;
683 -> 697 ;
698 [label=<loan &le; 0.408<br/>gini = 0.184<br/>samples = 88<br/>value = [79, 9]<br/>class = no>, fillcolor="#e88f50"] ;
678 -> 698 ;
699 [label=<y &le; -1.122<br/>gini = 0.049<br/>samples = 40<br/>value = [39, 1]<br/>class = no>, fillcolor="#e6843e"] ;
698 -> 699 ;
700 [label=<education &le; 0.533<br/>gini = 0.165<br/>samples = 11<br/>value = [10, 1]<br/>class = no>, fillcolor="#e88e4d"] ;
699 -> 700 ;
701 [label=<gini = 0.0<br/>samples = 7<br/>value = [7, 0]<br/>class = no>, fillcolor="#e58139"] ;
700 -> 701 ;
702 [label=<marital &le; 1.307<br/>gini = 0.375<br/>samples = 4<br/>value = [3, 1]<br/>class = no>, fillcolor="#eeab7b"] ;
700 -> 702 ;
703 [label=<gini = 0.0<br/>samples = 1<br/>value = [1, 0]<br/>class = no>, fillcolor="#e58139"] ;
702 -> 703 ;
704 [label=<gini = 0.444<br/>samples = 3<br/>value = [2, 1]<br/>class = no>, fillcolor="#f2c09c"] ;
702 -> 704 ;
705 [label=<gini = 0.0<br/>samples = 29<br/>value = [29, 0]<br/>class = no>, fillcolor="#e58139"] ;
699 -> 705 ;
706 [label=<education &le; 0.533<br/>gini = 0.278<br/>samples = 48<br/>value = [40, 8]<br/>class = no>, fillcolor="#ea9a61"] ;
698 -> 706 ;
707 [label=<marital &le; 1.585<br/>gini = 0.202<br/>samples = 35<br/>value = [31, 4]<br/>class = no>, fillcolor="#e89153"] ;
706 -> 707 ;
708 [label=<education &le; -1.114<br/>gini = 0.165<br/>samples = 33<br/>value = [30, 3]<br/>class = no>, fillcolor="#e88e4d"] ;
707 -> 708 ;
709 [label=<y &le; -1.122<br/>gini = 0.444<br/>samples = 3<br/>value = [2, 1]<br/>class = no>, fillcolor="#f2c09c"] ;
708 -> 709 ;
710 [label=<marital &le; 0.752<br/>gini = 0.5<br/>samples = 2<br/>value = [1, 1]<br/>class = no>, fillcolor="#ffffff"] ;
709 -> 710 ;
711 [label=<gini = 0.0<br/>samples = 1<br/>value = [1, 0]<br/>class = no>, fillcolor="#e58139"] ;
710 -> 711 ;
712 [label=<gini = 0.0<br/>samples = 1<br/>value = [0, 1]<br/>class = yes>, fillcolor="#399de5"] ;
710 -> 712 ;
713 [label=<gini = 0.0<br/>samples = 1<br/>value = [1, 0]<br/>class = no>, fillcolor="#e58139"] ;
709 -> 713 ;
714 [label=<contact &le; 0.894<br/>gini = 0.124<br/>samples = 30<br/>value = [28, 2]<br/>class = no>, fillcolor="#e78a47"] ;
708 -> 714 ;
715 [label=<marital &le; 1.029<br/>gini = 0.077<br/>samples = 25<br/>value = [24, 1]<br/>class = no>, fillcolor="#e68641"] ;
714 -> 715 ;
716 [label=<gini = 0.0<br/>samples = 15<br/>value = [15, 0]<br/>class = no>, fillcolor="#e58139"] ;
715 -> 716 ;
717 [label=<y &le; -1.122<br/>gini = 0.18<br/>samples = 10<br/>value = [9, 1]<br/>class = no>, fillcolor="#e88f4f"] ;
715 -> 717 ;
718 [label=<gini = 0.0<br/>samples = 3<br/>value = [3, 0]<br/>class = no>, fillcolor="#e58139"] ;
717 -> 718 ;
719 [label=<default &le; 0.807<br/>gini = 0.245<br/>samples = 7<br/>value = [6, 1]<br/>class = no>, fillcolor="#e9965a"] ;
717 -> 719 ;
720 [label=<gini = 0.32<br/>samples = 5<br/>value = [4, 1]<br/>class = no>, fillcolor="#eca06a"] ;
719 -> 720 ;
721 [label=<gini = 0.0<br/>samples = 2<br/>value = [2, 0]<br/>class = no>, fillcolor="#e58139"] ;
719 -> 721 ;
722 [label=<marital &le; 0.752<br/>gini = 0.32<br/>samples = 5<br/>value = [4, 1]<br/>class = no>, fillcolor="#eca06a"] ;
714 -> 722 ;
723 [label=<y &le; -1.122<br/>gini = 0.444<br/>samples = 3<br/>value = [2, 1]<br/>class = no>, fillcolor="#f2c09c"] ;
722 -> 723 ;
724 [label=<gini = 0.0<br/>samples = 1<br/>value = [1, 0]<br/>class = no>, fillcolor="#e58139"] ;
723 -> 724 ;
725 [label=<gini = 0.5<br/>samples = 2<br/>value = [1, 1]<br/>class = no>, fillcolor="#ffffff"] ;
723 -> 725 ;
726 [label=<gini = 0.0<br/>samples = 2<br/>value = [2, 0]<br/>class = no>, fillcolor="#e58139"] ;
722 -> 726 ;
727 [label=<gini = 0.5<br/>samples = 2<br/>value = [1, 1]<br/>class = no>, fillcolor="#ffffff"] ;
707 -> 727 ;
728 [label=<contact &le; 0.894<br/>gini = 0.426<br/>samples = 13<br/>value = [9, 4]<br/>class = no>, fillcolor="#f1b991"] ;
706 -> 728 ;
729 [label=<default &le; 1.273<br/>gini = 0.48<br/>samples = 10<br/>value = [6, 4]<br/>class = no>, fillcolor="#f6d5bd"] ;
728 -> 729 ;
730 [label=<y &le; -1.122<br/>gini = 0.494<br/>samples = 9<br/>value = [5, 4]<br/>class = no>, fillcolor="#fae6d7"] ;
729 -> 730 ;
731 [label=<marital &le; 0.752<br/>gini = 0.375<br/>samples = 4<br/>value = [3, 1]<br/>class = no>, fillcolor="#eeab7b"] ;
730 -> 731 ;
732 [label=<gini = 0.0<br/>samples = 1<br/>value = [1, 0]<br/>class = no>, fillcolor="#e58139"] ;
731 -> 732 ;
733 [label=<gini = 0.444<br/>samples = 3<br/>value = [2, 1]<br/>class = no>, fillcolor="#f2c09c"] ;
731 -> 733 ;
734 [label=<marital &le; 0.752<br/>gini = 0.48<br/>samples = 5<br/>value = [2, 3]<br/>class = yes>, fillcolor="#bddef6"] ;
730 -> 734 ;
735 [label=<gini = 0.5<br/>samples = 2<br/>value = [1, 1]<br/>class = no>, fillcolor="#ffffff"] ;
734 -> 735 ;
736 [label=<default &le; 0.807<br/>gini = 0.444<br/>samples = 3<br/>value = [1, 2]<br/>class = yes>, fillcolor="#9ccef2"] ;
734 -> 736 ;
737 [label=<gini = 0.5<br/>samples = 2<br/>value = [1, 1]<br/>class = no>, fillcolor="#ffffff"] ;
736 -> 737 ;
738 [label=<gini = 0.0<br/>samples = 1<br/>value = [0, 1]<br/>class = yes>, fillcolor="#399de5"] ;
736 -> 738 ;
739 [label=<gini = 0.0<br/>samples = 1<br/>value = [1, 0]<br/>class = no>, fillcolor="#e58139"] ;
729 -> 739 ;
740 [label=<gini = 0.0<br/>samples = 3<br/>value = [3, 0]<br/>class = no>, fillcolor="#e58139"] ;
728 -> 740 ;
741 [label=<marital &le; 1.585<br/>gini = 0.117<br/>samples = 322<br/>value = [302, 20]<br/>class = no>, fillcolor="#e78946"] ;
3 -> 741 ;
742 [label=<education &le; -1.114<br/>gini = 0.103<br/>samples = 313<br/>value = [296, 17]<br/>class = no>, fillcolor="#e68844"] ;
741 -> 742 ;
743 [label=<poutcome &le; -0.985<br/>gini = 0.285<br/>samples = 29<br/>value = [24, 5]<br/>class = no>, fillcolor="#ea9b62"] ;
742 -> 743 ;
744 [label=<gini = 0.0<br/>samples = 6<br/>value = [6, 0]<br/>class = no>, fillcolor="#e58139"] ;
743 -> 744 ;
745 [label=<loan &le; -0.101<br/>gini = 0.34<br/>samples = 23<br/>value = [18, 5]<br/>class = no>, fillcolor="#eca470"] ;
743 -> 745 ;
746 [label=<contact &le; 0.894<br/>gini = 0.426<br/>samples = 13<br/>value = [9, 4]<br/>class = no>, fillcolor="#f1b991"] ;
745 -> 746 ;
747 [label=<default &le; -1.056<br/>gini = 0.298<br/>samples = 11<br/>value = [9, 2]<br/>class = no>, fillcolor="#eb9d65"] ;
746 -> 747 ;
748 [label=<marital &le; -0.22<br/>gini = 0.48<br/>samples = 5<br/>value = [3, 2]<br/>class = no>, fillcolor="#f6d5bd"] ;
747 -> 748 ;
749 [label=<poutcome &le; 0.093<br/>gini = 0.375<br/>samples = 4<br/>value = [3, 1]<br/>class = no>, fillcolor="#eeab7b"] ;
748 -> 749 ;
750 [label=<default &le; -1.521<br/>gini = 0.5<br/>samples = 2<br/>value = [1, 1]<br/>class = no>, fillcolor="#ffffff"] ;
749 -> 750 ;
751 [label=<gini = 0.0<br/>samples = 1<br/>value = [1, 0]<br/>class = no>, fillcolor="#e58139"] ;
750 -> 751 ;
752 [label=<gini = 0.0<br/>samples = 1<br/>value = [0, 1]<br/>class = yes>, fillcolor="#399de5"] ;
750 -> 752 ;
753 [label=<gini = 0.0<br/>samples = 2<br/>value = [2, 0]<br/>class = no>, fillcolor="#e58139"] ;
749 -> 753 ;
754 [label=<gini = 0.0<br/>samples = 1<br/>value = [0, 1]<br/>class = yes>, fillcolor="#399de5"] ;
748 -> 754 ;
755 [label=<gini = 0.0<br/>samples = 6<br/>value = [6, 0]<br/>class = no>, fillcolor="#e58139"] ;
747 -> 755 ;
756 [label=<gini = 0.0<br/>samples = 2<br/>value = [0, 2]<br/>class = yes>, fillcolor="#399de5"] ;
746 -> 756 ;
757 [label=<marital &le; -0.915<br/>gini = 0.18<br/>samples = 10<br/>value = [9, 1]<br/>class = no>, fillcolor="#e88f4f"] ;
745 -> 757 ;
758 [label=<poutcome &le; 0.093<br/>gini = 0.32<br/>samples = 5<br/>value = [4, 1]<br/>class = no>, fillcolor="#eca06a"] ;
757 -> 758 ;
759 [label=<gini = 0.0<br/>samples = 2<br/>value = [2, 0]<br/>class = no>, fillcolor="#e58139"] ;
758 -> 759 ;
760 [label=<y &le; -1.122<br/>gini = 0.444<br/>samples = 3<br/>value = [2, 1]<br/>class = no>, fillcolor="#f2c09c"] ;
758 -> 760 ;
761 [label=<gini = 0.0<br/>samples = 1<br/>value = [1, 0]<br/>class = no>, fillcolor="#e58139"] ;
760 -> 761 ;
762 [label=<gini = 0.5<br/>samples = 2<br/>value = [1, 1]<br/>class = no>, fillcolor="#ffffff"] ;
760 -> 762 ;
763 [label=<gini = 0.0<br/>samples = 5<br/>value = [5, 0]<br/>class = no>, fillcolor="#e58139"] ;
757 -> 763 ;
764 [label=<poutcome &le; -0.985<br/>gini = 0.081<br/>samples = 284<br/>value = [272, 12]<br/>class = no>, fillcolor="#e68742"] ;
742 -> 764 ;
765 [label=<marital &le; 1.307<br/>gini = 0.02<br/>samples = 101<br/>value = [100, 1]<br/>class = no>, fillcolor="#e5823b"] ;
764 -> 765 ;
766 [label=<gini = 0.0<br/>samples = 88<br/>value = [88, 0]<br/>class = no>, fillcolor="#e58139"] ;
765 -> 766 ;
767 [label=<default &le; 0.109<br/>gini = 0.142<br/>samples = 13<br/>value = [12, 1]<br/>class = no>, fillcolor="#e78c49"] ;
765 -> 767 ;
768 [label=<loan &le; -0.101<br/>gini = 0.444<br/>samples = 3<br/>value = [2, 1]<br/>class = no>, fillcolor="#f2c09c"] ;
767 -> 768 ;
769 [label=<gini = 0.0<br/>samples = 1<br/>value = [0, 1]<br/>class = yes>, fillcolor="#399de5"] ;
768 -> 769 ;
770 [label=<gini = 0.0<br/>samples = 2<br/>value = [2, 0]<br/>class = no>, fillcolor="#e58139"] ;
768 -> 770 ;
771 [label=<gini = 0.0<br/>samples = 10<br/>value = [10, 0]<br/>class = no>, fillcolor="#e58139"] ;
767 -> 771 ;
772 [label=<default &le; -1.056<br/>gini = 0.113<br/>samples = 183<br/>value = [172, 11]<br/>class = no>, fillcolor="#e78946"] ;
764 -> 772 ;
773 [label=<contact &le; 0.215<br/>gini = 0.191<br/>samples = 56<br/>value = [50, 6]<br/>class = no>, fillcolor="#e89051"] ;
772 -> 773 ;
774 [label=<marital &le; 0.752<br/>gini = 0.236<br/>samples = 44<br/>value = [38, 6]<br/>class = no>, fillcolor="#e99558"] ;
773 -> 774 ;
775 [label=<default &le; -1.521<br/>gini = 0.21<br/>samples = 42<br/>value = [37, 5]<br/>class = no>, fillcolor="#e99254"] ;
774 -> 775 ;
776 [label=<y &le; -1.122<br/>gini = 0.133<br/>samples = 28<br/>value = [26, 2]<br/>class = no>, fillcolor="#e78b48"] ;
775 -> 776 ;
777 [label=<poutcome &le; 0.309<br/>gini = 0.408<br/>samples = 7<br/>value = [5, 2]<br/>class = no>, fillcolor="#efb388"] ;
776 -> 777 ;
778 [label=<gini = 0.0<br/>samples = 1<br/>value = [0, 1]<br/>class = yes>, fillcolor="#399de5"] ;
777 -> 778 ;
779 [label=<poutcome &le; 0.956<br/>gini = 0.278<br/>samples = 6<br/>value = [5, 1]<br/>class = no>, fillcolor="#ea9a61"] ;
777 -> 779 ;
780 [label=<gini = 0.0<br/>samples = 5<br/>value = [5, 0]<br/>class = no>, fillcolor="#e58139"] ;
779 -> 780 ;
781 [label=<gini = 0.0<br/>samples = 1<br/>value = [0, 1]<br/>class = yes>, fillcolor="#399de5"] ;
779 -> 781 ;
782 [label=<gini = 0.0<br/>samples = 21<br/>value = [21, 0]<br/>class = no>, fillcolor="#e58139"] ;
776 -> 782 ;
783 [label=<marital &le; -0.915<br/>gini = 0.337<br/>samples = 14<br/>value = [11, 3]<br/>class = no>, fillcolor="#eca36f"] ;
775 -> 783 ;
784 [label=<gini = 0.0<br/>samples = 1<br/>value = [0, 1]<br/>class = yes>, fillcolor="#399de5"] ;
783 -> 784 ;
785 [label=<y &le; -1.122<br/>gini = 0.26<br/>samples = 13<br/>value = [11, 2]<br/>class = no>, fillcolor="#ea985d"] ;
783 -> 785 ;
786 [label=<gini = 0.0<br/>samples = 4<br/>value = [4, 0]<br/>class = no>, fillcolor="#e58139"] ;
785 -> 786 ;
787 [label=<loan &le; -0.101<br/>gini = 0.346<br/>samples = 9<br/>value = [7, 2]<br/>class = no>, fillcolor="#eca572"] ;
785 -> 787 ;
788 [label=<poutcome &le; 0.093<br/>gini = 0.375<br/>samples = 4<br/>value = [3, 1]<br/>class = no>, fillcolor="#eeab7b"] ;
787 -> 788 ;
789 [label=<gini = 0.444<br/>samples = 3<br/>value = [2, 1]<br/>class = no>, fillcolor="#f2c09c"] ;
788 -> 789 ;
790 [label=<gini = 0.0<br/>samples = 1<br/>value = [1, 0]<br/>class = no>, fillcolor="#e58139"] ;
788 -> 790 ;
791 [label=<poutcome &le; 0.093<br/>gini = 0.32<br/>samples = 5<br/>value = [4, 1]<br/>class = no>, fillcolor="#eca06a"] ;
787 -> 791 ;
792 [label=<gini = 0.0<br/>samples = 2<br/>value = [2, 0]<br/>class = no>, fillcolor="#e58139"] ;
791 -> 792 ;
793 [label=<gini = 0.444<br/>samples = 3<br/>value = [2, 1]<br/>class = no>, fillcolor="#f2c09c"] ;
791 -> 793 ;
794 [label=<loan &le; -0.101<br/>gini = 0.5<br/>samples = 2<br/>value = [1, 1]<br/>class = no>, fillcolor="#ffffff"] ;
774 -> 794 ;
795 [label=<gini = 0.0<br/>samples = 1<br/>value = [0, 1]<br/>class = yes>, fillcolor="#399de5"] ;
794 -> 795 ;
796 [label=<gini = 0.0<br/>samples = 1<br/>value = [1, 0]<br/>class = no>, fillcolor="#e58139"] ;
794 -> 796 ;
797 [label=<gini = 0.0<br/>samples = 12<br/>value = [12, 0]<br/>class = no>, fillcolor="#e58139"] ;
773 -> 797 ;
798 [label=<marital &le; 1.307<br/>gini = 0.076<br/>samples = 127<br/>value = [122, 5]<br/>class = no>, fillcolor="#e68641"] ;
772 -> 798 ;
799 [label=<poutcome &le; 0.093<br/>gini = 0.054<br/>samples = 108<br/>value = [105, 3]<br/>class = no>, fillcolor="#e6853f"] ;
798 -> 799 ;
800 [label=<poutcome &le; -0.338<br/>gini = 0.115<br/>samples = 49<br/>value = [46, 3]<br/>class = no>, fillcolor="#e78946"] ;
799 -> 800 ;
801 [label=<education &le; 0.533<br/>gini = 0.08<br/>samples = 48<br/>value = [46, 2]<br/>class = no>, fillcolor="#e68642"] ;
800 -> 801 ;
802 [label=<gini = 0.0<br/>samples = 30<br/>value = [30, 0]<br/>class = no>, fillcolor="#e58139"] ;
801 -> 802 ;
